{"version":"strike_cnn_v1","label":"strike","labelMode":"center","labelEndPadding":20,"windowSize":70,"stride":8,"defaultThreshold":0.5,"featureCols":["ax","ay","az","gx","gy","gz","grx","gry","grz","acc_mag","gyro_mag"],"featureMean":[0.23057736456394196,0.03573400154709816,0.1134805977344513,-0.055927474051713943,0.07969346642494202,0.1595355123281479,0.640086829662323,0.4266498386859894,-0.024631770327687263,0.7887037992477417,2.605825662612915],"featureStd":[0.8191264867782593,0.7681587934494019,0.6681854724884033,1.892561674118042,1.839495301246643,2.06768798828125,0.4291705787181854,0.3327759802341461,0.3359045386314392,1.073829174041748,2.1185436248779297],"modelSpec":{"name":"strike_cnn_v1","in_channels":11,"conv_channels":[32,64,128],"conv_kernel_sizes":[5,5,3],"pool_after":[true,true,false],"hidden_dim":64,"dropout":0.3},"blocks":[{"conv":{"outChannels":32,"inChannels":11,"kernelSize":5,"padding":2,"weight":[-0.07642442733049393,-0.06378155946731567,0.1341543048620224,0.07266558706760406,0.13519228994846344,0.11395054310560226,-0.09040790796279907,0.14277182519435883,0.04085749015212059,0.043847329914569855,0.12612910568714142,-0.1091012954711914,-0.07287511229515076,-0.09896810352802277,0.09314459562301636,-0.05240834876894951,0.10860167443752289,-0.0325685553252697,-0.03326071798801422,0.08037237823009491,-0.030059468001127243,-0.014978457242250443,0.07292857021093369,-0.04359851032495499,0.09967854619026184,0.03946578875184059,0.0902133360505104,0.07031479477882385,-0.004552756901830435,-0.010523217730224133,-0.05011101812124252,-0.058530256152153015,0.1185164526104927,-0.09687620401382446,0.011158053763210773,-0.06827113777399063,0.12177393585443497,0.012956613674759865,0.10654649883508682,0.1313515603542328,0.08805505186319351,0.12521924078464508,0.05101338028907776,-0.10151469707489014,-0.010023562237620354,-0.07506417483091354,-0.12562717497348785,0.010671700350940228,-0.15161947906017303,0.08749336749315262,-0.01189042255282402,-0.032220352441072464,0.04104023799300194,0.09884846955537796,0.04140138626098633,-0.07331058382987976,-0.12274692952632904,0.004477977752685547,0.09981563687324524,0.06575261056423187,0.02442350797355175,0.1399935781955719,0.11139900982379913,0.11852049827575684,0.1201857253909111,-0.011250605806708336,-0.056829627603292465,0.09443312883377075,-0.09461646527051926,-0.16352929174900055,-0.15382182598114014,-0.12228546291589737,-0.10726327449083328,-0.10061643272638321,0.023033054545521736,0.06021345406770706,0.05778339132666588,0.0360800102353096,0.06572706252336502,0.08473660796880722,0.0387086495757103,0.020456166937947273,-0.0650448352098465,-0.1326087862253189,0.0710763931274414,0.05598406493663788,0.08967024087905884,0.008443910628557205,-0.0008078758837655187,-0.0677504912018776,0.06345679610967636,0.11622153222560883,0.019410867244005203,-0.0836610421538353,0.13437464833259583,-0.004363548941910267,-0.09229695796966553,-0.03285866975784302,0.0845411866903305,0.09988855570554733,0.0623888224363327,0.06782816350460052,0.049889057874679565,0.09731745719909668,-0.15457426011562347,-0.12104666978120804,-0.05715320631861687,-0.0034865376073867083,0.1254987120628357,0.07053571194410324,-0.008350788615643978,0.01741144061088562,-0.1308986097574234,0.08728896826505661,-0.038654912263154984,0.037488315254449844,0.010692529380321503,0.04549797996878624,0.08979134261608124,0.13911959528923035,-0.17794716358184814,-0.07402907311916351,-0.1468837559223175,-0.20383992791175842,-0.006367865949869156,-0.00778212072327733,-0.0847901776432991,0.02285439893603325,0.07475419342517853,-0.008846675977110863,0.06955118477344513,-0.024799713864922523,-0.09335199743509293,0.10118602961301804,0.06489173322916031,0.09524460136890411,-0.04745204746723175,-0.08101718127727509,-0.04886926710605621,-0.049651484936475754,0.10794750601053238,0.1215093806385994,-0.020544331520795822,-0.08322469145059586,-0.062220100313425064,-0.012435825541615486,-0.14462324976921082,0.10038746893405914,0.06486161798238754,0.026960184797644615,0.09937996417284012,-0.017317168414592743,-0.006941963918507099,-0.07241733372211456,0.006649808958172798,0.09845717251300812,0.04224104434251785,-0.038148075342178345,0.036628007888793945,-0.11938944458961487,-0.06763260811567307,0.09206031262874603,0.0961982011795044,-0.08771080523729324,0.002042038133367896,0.0817050114274025,-0.13306333124637604,-0.0577407069504261,-0.028271878138184547,0.10959325730800629,-0.12293128669261932,0.029048779979348183,-0.012583439238369465,0.13037851452827454,0.0033754012547433376,-0.028003206476569176,-0.08049286901950836,0.04076344892382622,0.09484199434518814,0.08659888803958893,-0.029137220233678818,-0.16075269877910614,0.05850711837410927,-0.05849812924861908,-0.06951558589935303,-0.054364267736673355,-0.08142732828855515,-0.04202212020754814,0.14443223178386688,0.11723440885543823,-0.11112527549266815,0.044990815222263336,0.09710989892482758,-0.08669616281986237,-0.1484452486038208,0.1320817768573761,-0.019102739170193672,-0.01050209254026413,0.036082103848457336,0.1665426641702652,-0.006630212068557739,-0.09746453166007996,0.1277637481689453,0.02191966213285923,0.10684552788734436,0.06258411705493927,0.01211526058614254,-0.11439768970012665,-0.10446915775537491,0.06644926220178604,0.058815959841012955,0.13159804046154022,-0.1049857810139656,-0.06933531165122986,0.009762153029441833,-0.0672290101647377,0.1411747932434082,0.122444748878479,0.08748140931129456,-0.10729315131902695,0.08079567551612854,0.06349211186170578,0.08901944756507874,0.06882032006978989,-0.09287087619304657,0.03142203390598297,0.08896184712648392,0.09663914889097214,-0.13656261563301086,-0.03706616908311844,0.12629812955856323,-0.011060379445552826,0.07738930732011795,0.047835927456617355,0.13547669351100922,0.04332553967833519,0.036144010722637177,-0.007772539742290974,-0.14109386503696442,0.1371171623468399,-0.07377375662326813,-0.04977922886610031,0.020835643634200096,0.08577704429626465,0.002703653182834387,0.015540014021098614,0.014133201912045479,0.1376502960920334,-0.03663698583841324,-0.0588565319776535,-0.11616017669439316,0.0031284454744309187,-0.16623613238334656,-0.05991091951727867,-0.01733529567718506,0.15862849354743958,-0.07327278703451157,-0.04075513035058975,0.007543678395450115,0.12153951078653336,-0.0778137594461441,0.10972757637500763,-0.020608125254511833,0.06916002184152603,0.03874170780181885,0.12837250530719757,0.07746560126543045,-0.0742487758398056,0.14491453766822815,0.09960386902093887,-0.04906611144542694,-0.09692225605249405,0.12244054675102234,-0.01372502651065588,0.09535866230726242,0.010544097982347012,-0.08418987691402435,0.031225182116031647,0.09491787850856781,-0.057398390024900436,0.11955022811889648,0.027086639776825905,0.05648091807961464,0.05205594748258591,0.10694222897291183,-0.04122653603553772,0.037141285836696625,-0.03335825726389885,-0.08108177036046982,-0.05664632469415665,-0.017678091302514076,-0.03754877671599388,0.05250418931245804,0.061619460582733154,-0.122816301882267,-0.01092808973044157,0.14705109596252441,-0.020208681002259254,0.09349750727415085,0.02413247898221016,-0.09819257259368896,-0.023440463468432426,-0.04458492994308472,0.10223665088415146,0.02755480818450451,-0.021097218617796898,0.05252283066511154,0.10474944114685059,-0.002029354916885495,-0.03142380341887474,-0.194863423705101,-0.16360029578208923,-0.1905956119298935,0.0175681971013546,0.04053840786218643,-0.04345405101776123,0.052925337105989456,-0.04522758722305298,-0.03474659472703934,0.05265244469046593,-0.00827416405081749,-0.08154001832008362,-0.040860842913389206,-0.14335988461971283,-0.056940145790576935,0.04376990720629692,0.01996564492583275,0.09172498434782028,-0.11932051926851273,0.07789578288793564,0.06922975927591324,-0.006769224070012569,0.10085225105285645,0.06237681210041046,0.06859424710273743,-0.13270288705825806,-0.11562124639749527,0.029589377343654633,0.07925282418727875,-0.020527780055999756,0.20037783682346344,0.23723383247852325,0.046659182757139206,-0.052894558757543564,-0.00821749959141016,0.03432108834385872,0.0093155512586236,-0.016089528799057007,-0.047412119805812836,0.07332729548215866,0.029859822243452072,-0.07846292108297348,-0.10467351973056793,0.09287310391664505,0.03214365243911743,-0.08759723603725433,-0.06263068318367004,0.061924517154693604,-0.09632604569196701,-0.038446735590696335,0.07657432556152344,0.043111544102430344,0.11079085618257523,-0.05497107282280922,-0.009393761865794659,-0.08049722760915756,0.10517310351133347,-0.04820128157734871,0.029948873445391655,0.062163565307855606,-0.10625258833169937,0.027526751160621643,0.10122690349817276,0.0632828027009964,-0.10427024215459824,0.04847631976008415,0.021187707781791687,-0.03009076416492462,0.07899811863899231,0.054837293922901154,-0.09512534737586975,-0.130623921751976,-0.10683581233024597,0.011409022845327854,-0.15235617756843567,-0.14625957608222961,0.09172879904508591,0.06484522670507431,-0.02284998632967472,-0.04875405877828598,0.10570105910301208,-0.07834382355213165,0.1374818980693817,0.06884615868330002,-0.03893875330686569,-0.08020032942295074,-0.18339191377162933,-0.11944087594747543,-0.13780832290649414,0.051742635667324066,0.09557925164699554,0.04730859771370888,-0.003376321867108345,-0.09623618423938751,0.06944603472948074,-0.055002208799123764,0.06444466859102249,0.11865364760160446,0.04454448074102402,0.13291364908218384,-0.011198240332305431,0.024958128109574318,-0.05287680774927139,-0.024462277069687843,-0.08893018215894699,0.05218266323208809,-0.05944244936108589,-0.08366331458091736,0.009360470809042454,0.11285880953073502,-0.06884293258190155,0.04088780656456947,-0.1007610633969307,0.017863821238279343,-0.10819678008556366,-0.096373051404953,-0.11453402042388916,0.1056467741727829,0.03325597941875458,0.030773861333727837,0.09985453635454178,0.06538593024015427,-0.08755820244550705,-0.06107783690094948,-0.024812540039420128,-0.12455300241708755,-0.04615011811256409,0.028638718649744987,-0.027627993375062943,-0.11023897677659988,-0.057571105659008026,0.06338103115558624,-0.12551650404930115,-0.08143619447946548,0.08049026131629944,0.00859479233622551,0.09023983776569366,-0.023768654093146324,-0.08654585480690002,0.07322443276643753,-0.009781913831830025,-0.1222318708896637,0.0016421349719166756,-0.06047690659761429,0.12127172201871872,0.13826537132263184,-0.12959812581539154,-0.012848242186009884,0.013382297940552235,0.09263274818658829,-0.08437561243772507,0.04953734204173088,-0.00655518239364028,-0.15620023012161255,-0.1069144532084465,0.07193738222122192,-0.011444146744906902,0.03794282302260399,-0.0040166936814785,0.09348931163549423,0.08824190497398376,0.14172334969043732,-0.09882998466491699,-0.08473102748394012,-0.020791105926036835,0.08852320164442062,-0.003909956198185682,-0.09306981414556503,-0.012509586289525032,0.0870034471154213,-0.00888830330222845,0.09636278450489044,-0.06538832932710648,0.015382264740765095,0.017393898218870163,0.030507873743772507,0.17247338593006134,-0.007942224852740765,0.12906572222709656,0.18473519384860992,-0.088228240609169,0.0010626629227772355,0.057982075959444046,-0.07729033380746841,0.048288315534591675,-0.07657115161418915,0.018483446910977364,-0.07247982174158096,-0.06077846139669418,0.04166894778609276,-0.027549972757697105,-0.06611640751361847,0.027620086446404457,0.043268561363220215,0.1132168173789978,0.12419721484184265,0.1686435490846634,-0.024310139939188957,0.007741393521428108,-0.1548873484134674,-0.025558145716786385,0.05656149983406067,-0.09145748615264893,0.05268886312842369,0.06676552444696426,0.07257401198148727,-0.024311482906341553,0.09870659559965134,-0.10384213924407959,0.0253611970692873,-0.0788445845246315,0.14552414417266846,0.15690845251083374,0.041173651814460754,-0.06844521313905716,0.10534627735614777,-0.10774413496255875,-0.12792611122131348,-0.03786379098892212,-0.019222665578126907,0.12585631012916565,-0.12036244571208954,-0.039644256234169006,-0.10547055304050446,-0.0015750201418995857,0.0635458454489708,-0.004861867520958185,-0.04727212339639664,0.09640822559595108,0.0170484259724617,0.011664780788123608,0.06721832603216171,0.018931185826659203,0.06052723899483681,-0.12433487921953201,0.07846152782440186,0.15341021120548248,0.09490551054477692,-0.11626038700342178,0.056605830788612366,-0.16409610211849213,0.029324915260076523,-0.13516567647457123,-0.12972700595855713,-0.11552158743143082,0.05459586903452873,-0.030059032142162323,-0.07730413228273392,-0.04352882131934166,0.10407330095767975,0.11848850548267365,0.19785144925117493,0.039276495575904846,0.05751712992787361,-0.0025796149857342243,-0.08330748230218887,-0.037491701543331146,-0.14193569123744965,-0.09276917576789856,-0.07591377943754196,-0.03620605170726776,0.004465509671717882,-0.08652130514383316,-0.15131786465644836,-0.10476619005203247,-0.05763506516814232,0.06432002037763596,-0.09526986628770828,0.08386266231536865,-0.09169156104326248,0.02218657173216343,0.05384785681962967,-0.05301467701792717,-0.08171764761209488,0.093135304749012,-0.021588820964097977,-0.09079568088054657,0.03848470374941826,0.07818755507469177,0.04190143197774887,-0.0015032545197755098,-0.13092105090618134,0.10935842990875244,0.04091724380850792,0.015824610367417336,-0.12365113198757172,-0.07305590063333511,0.055444903671741486,0.08364017307758331,0.03559093922376633,0.05514293536543846,0.011218290776014328,-0.11374685913324356,-0.07990320771932602,-0.09623517841100693,-0.007137122564017773,-0.049151740968227386,-0.05419909954071045,-0.09434587508440018,0.0834265872836113,-0.05199538171291351,0.028872979804873466,0.05509865656495094,-0.043003328144550323,-0.005730058066546917,-0.14180563390254974,-0.03526168316602707,-0.12227161973714828,0.048990994691848755,0.07074794173240662,0.024266710504889488,-0.021332543343305588,-0.13559670746326447,0.09190401434898376,-0.16069869697093964,-0.0750495046377182,-0.06896866112947464,-0.106566421687603,0.10383208096027374,0.1915191113948822,-0.034152038395404816,0.09520680457353592,-0.027989525347948074,0.04578395560383797,0.022020511329174042,0.07851199805736542,-0.025299394503235817,0.0032016881741583347,-0.06312572211027145,-0.003162723733112216,0.066118523478508,-0.09656590968370438,-0.13922755420207977,-0.09226952493190765,0.0346301905810833,0.036216869950294495,-0.07009346038103104,0.074039526283741,0.06227649748325348,-0.06807684898376465,-0.05299950763583183,-0.042048029601573944,-0.13121961057186127,-0.0006764203426428139,0.14456775784492493,0.05244109779596329,0.14140154421329498,-0.04552629962563515,-0.045556046068668365,0.014840328134596348,0.17030318081378937,0.0372985303401947,0.08619890362024307,0.08165374398231506,0.12281806766986847,0.009939553216099739,-0.004792519845068455,0.00393881369382143,-0.042827341705560684,-0.07614277303218842,0.12685464322566986,0.045281413942575455,0.08828948438167572,0.05830025300383568,0.1448807269334793,-0.09177061170339584,0.06663140654563904,0.015697529539465904,0.0606800802052021,-0.06130172684788704,0.029522206634283066,0.044236715883016586,0.011496714316308498,-0.09762076288461685,0.029671011492609978,-0.03539738431572914,0.08602306991815567,-0.005003677681088448,0.014844145625829697,0.08873572200536728,-0.04139930009841919,0.1419820487499237,0.09540175646543503,0.05274859070777893,0.06940560042858124,-0.04889068379998207,-0.12079786509275436,-0.15698671340942383,-0.1508263796567917,-0.0793696716427803,-0.07058306038379669,-0.10031165182590485,-0.09932229667901993,0.12278913706541061,0.1059534102678299,0.023043910041451454,-0.1387152075767517,-0.06739827990531921,0.05095699429512024,0.12766806781291962,-0.05594361573457718,-0.009088435210287571,0.08127975463867188,0.05774557963013649,-0.16255658864974976,0.08499100804328918,0.12043550610542297,0.057862307876348495,0.08140754699707031,0.1401568204164505,0.06767993420362473,-0.09384848177433014,-0.031069865450263023,-0.0048986454494297504,0.06980882585048676,-0.06803285330533981,-0.08858674019575119,-0.16802670061588287,-0.09805631637573242,0.06995818763971329,0.07674026489257812,-0.09877011179924011,-0.014462788589298725,-0.03414307162165642,-0.17314667999744415,-0.10355398058891296,0.1196698322892189,0.009725604206323624,-0.02794453501701355,0.07058021426200867,0.0007887740503065288,-0.04052048176527023,0.04366337135434151,0.1313367486000061,-0.022106263786554337,0.11463215947151184,-0.022479834035038948,0.04504627361893654,0.11405806988477707,-0.06252627819776535,-0.018737880513072014,-0.0963057205080986,0.09179674088954926,0.017532864585518837,0.016988737508654594,0.09844523668289185,-0.12014012783765793,-0.08845097571611404,0.04871446639299393,0.09800993651151657,0.1379205733537674,-0.07130556553602219,-0.02623336762189865,-0.05742162838578224,-0.1085016280412674,-0.11580660939216614,-0.13908357918262482,-0.0013645661529153585,-0.06606987863779068,-0.11249236762523651,0.13567045331001282,-0.09968296438455582,-0.09433625638484955,-0.11066186428070068,0.02107640728354454,0.061377543956041336,-0.03944321721792221,-0.09650854766368866,-0.09433021396398544,-0.0024644387885928154,0.1294364184141159,0.2251376360654831,0.006256650201976299,0.08792628347873688,0.05459422245621681,0.05374660715460777,-0.1417350172996521,0.06724654883146286,-0.05850852653384209,0.028258750215172768,-0.08519971370697021,-0.10914816707372665,0.0767928957939148,-0.014055968262255192,-0.03728901967406273,0.03805898129940033,-0.013784976676106453,-0.09685935825109482,0.05537791922688484,0.11310527473688126,0.1662808358669281,-0.03172246366739273,0.14855265617370605,0.026660799980163574,-0.079536072909832,0.00745209539309144,0.12194063514471054,-0.10295222699642181,-0.12912164628505707,0.11572298407554626,-0.048936109989881516,-0.01949606090784073,-0.010379074141383171,-0.057381048798561096,0.1122228130698204,-0.10925257205963135,0.11303576827049255,0.012059827335178852,-0.13038645684719086,-0.06126873940229416,0.045742377638816833,0.017418384552001953,-0.11410051584243774,0.0842694342136383,-0.11704257130622864,0.07780802249908447,-0.05306462198495865,-0.04132729396224022,0.016453124582767487,0.04776843637228012,0.09366832673549652,0.12554968893527985,-0.04206480458378792,-0.035922612994909286,0.10622601956129074,0.09735707193613052,0.1530536711215973,0.11701890826225281,0.06962503492832184,-0.1547921746969223,-0.09623459726572037,-0.12942621111869812,-0.07254433631896973,0.006747513543814421,0.10771642625331879,-0.08728279918432236,-0.10369794815778732,-0.006664333399385214,-0.017200250178575516,-0.06935350596904755,-0.016641974449157715,0.044121816754341125,0.1843424290418625,0.015631534159183502,0.20117169618606567,0.05817608907818794,-0.06420567631721497,0.015413255430758,0.04012297838926315,-0.03397778049111366,-0.09241363406181335,0.11822987347841263,0.06963084638118744,-0.09810134768486023,-0.06183897331357002,0.06433960050344467,-0.07910013943910599,-0.05907618999481201,-0.060657601803541183,0.16162556409835815,-0.10317341238260269,-0.007867260836064816,0.0017217894783243537,-0.014239050447940826,-0.09823406487703323,-0.09280601888895035,0.027388738468289375,-0.12139352411031723,-0.10944856703281403,0.05343176797032356,0.0468500517308712,0.10291101038455963,0.08565672487020493,0.11730766296386719,-0.05534740537405014,-0.05809937044978142,-0.02128027006983757,-0.09322242438793182,0.018618930131196976,0.10733292251825333,0.11632602661848068,0.2133188247680664,-0.019719170406460762,-0.0197439044713974,0.03602764755487442,0.019292624667286873,0.02497672662138939,0.07476536184549332,-0.003458354389294982,-0.025166213512420654,-0.051364537328481674,0.1338183879852295,-0.0744064524769783,0.012112097814679146,-0.09195982664823532,0.04962468519806862,0.09928072243928909,0.10500887781381607,-0.040509577840566635,0.023316243663430214,-0.007718770764768124,0.08993133157491684,0.03678154572844505,0.1616959422826767,-0.027591433376073837,0.05018099397420883,0.05377942696213722,-0.04760541021823883,-0.1603417992591858,-0.18508876860141754,0.07020371407270432,0.1311122477054596,0.1087300106883049,-0.04172584041953087,-0.024761399254202843,0.02011633664369583,0.1015971302986145,0.10637199133634567,0.007351771462708712,-0.03752424940466881,-0.06604905426502228,0.03533559292554855,0.03167116641998291,-0.14754685759544373,-0.055481500923633575,0.11004751175642014,-0.13179171085357666,0.06624916195869446,0.06761923432350159,-0.06014556810259819,0.11450675874948502,0.12038511037826538,-0.027231913059949875,0.003396212123334408,0.11917438358068466,-0.04032494127750397,-0.1754518300294876,-0.13637866079807281,-0.02603442594408989,-0.07476656883955002,0.033423375338315964,-0.04132121056318283,0.09524650871753693,0.02595432847738266,0.005018278956413269,-0.05997248366475105,-0.005742314737290144,-0.10502760112285614,-0.09509945660829544,-0.134676992893219,-0.037025339901447296,0.07057105749845505,-0.025171296671032906,-0.126815065741539,0.12581630051136017,-0.06126323714852333,0.05595320463180542,-0.025670545175671577,-0.06877084076404572,0.03485458716750145,0.06952241063117981,0.059403181076049805,-0.1442136913537979,-0.15522465109825134,-0.09445970505475998,0.12559708952903748,-0.016744716092944145,0.0008311215206049383,0.0194100271910429,0.08294492214918137,0.01781202107667923,-0.10039473325014114,-0.09194915741682053,-0.08562781661748886,0.11036897450685501,-0.020422620698809624,-0.13055658340454102,-0.07736612856388092,0.01535136066377163,-0.04754585772752762,-0.06930121779441833,-0.1458641141653061,-0.036146871745586395,-0.03023236058652401,0.03975623846054077,-0.10238099843263626,-0.03794510290026665,-0.024725360795855522,-0.10985852777957916,0.13291284441947937,0.10767848044633865,0.03489689528942108,0.11960072070360184,-0.027899261564016342,0.028230562806129456,-0.13868795335292816,-0.1519766002893448,0.00296851247549057,-0.06379274278879166,-0.13246257603168488,-0.04763158783316612,-0.09272954612970352,-0.02959483303129673,-0.007028957828879356,0.09934461116790771,-0.02871544472873211,0.14515137672424316,0.1492571383714676,-0.04109293594956398,0.1685263067483902,0.01841215044260025,-0.12371748685836792,0.08162105083465576,-0.06904922425746918,-0.0981820821762085,-0.08251595497131348,-0.047550562769174576,0.05473760887980461,0.10902480781078339,-0.01746777631342411,0.0512562170624733,0.02251252345740795,-0.10726235806941986,-0.053237657994031906,-0.0009682124364189804,-0.01665949635207653,-0.16070328652858734,-0.08366197347640991,-0.118477962911129,-0.033059097826480865,-0.03189760446548462,0.1014355793595314,-0.06907462328672409,-0.07923447340726852,0.08874141424894333,-0.07997007668018341,-0.04679067060351372,-0.08917554467916489,-0.06833278387784958,0.07376796007156372,0.022093432024121284,-0.09012386202812195,-0.09775266796350479,0.16496188938617706,-0.11686313152313232,0.005514954216778278,0.07051810622215271,0.03523744270205498,0.13283748924732208,0.09761304408311844,0.07352547347545624,0.03152109310030937,-0.14311833679676056,0.04557592049241066,0.01169282104820013,-0.033490732312202454,0.045887257903814316,0.06739657372236252,0.05958965793251991,-0.04569811746478081,0.1125270202755928,0.04545503482222557,-0.01830311119556427,0.17372427880764008,0.1595367193222046,-0.12334263324737549,-0.05295649543404579,0.010598751716315746,-0.03561370447278023,-0.09955587983131409,0.120732381939888,-0.07430197298526764,-0.03618410974740982,-0.09431760013103485,-0.09447023272514343,-0.08202961087226868,-0.08174076676368713,0.01172027550637722,-0.010198237374424934,0.05077943950891495,-0.24615667760372162,-0.15801747143268585,-0.11574149131774902,-0.08909165114164352,-0.060346171259880066,0.018698519095778465,0.10478553175926208,0.017961636185646057,0.10827495902776718,0.11290028691291809,0.012263149954378605,0.041512731462717056,0.18593844771385193,0.12353210151195526,-0.05227518454194069,0.0918159931898117,0.1301821619272232,0.10078490525484085,0.047348443418741226,0.020327415317296982,0.07342994958162308,0.04678981378674507,0.0276199821382761,0.06397521495819092,-0.11307564377784729,-0.05000976473093033,0.05013217031955719,-0.10024555027484894,0.0012386712478473783,-0.05018528923392296,0.036093443632125854,-0.009910717606544495,0.11648254841566086,0.10261235386133194,-0.04186456277966499,-0.021258270367980003,-0.05836668983101845,-0.023649495095014572,0.10282865911722183,0.08336856216192245,0.015490095131099224,-0.02976837567985058,0.049359001219272614,0.12758086621761322,-0.04628326743841171,0.036124881356954575,-0.04656778275966644,0.08793332427740097,-0.06283647567033768,-0.09381827712059021,-0.05995099991559982,0.09769202023744583,0.0009965712670236826,0.0580412931740284,0.03495003283023834,0.11018848419189453,0.13857722282409668,0.092713363468647,0.016270669177174568,-0.06506696343421936,0.1168447732925415,0.018504535779356956,-0.057383522391319275,0.053778521716594696,0.01384687703102827,0.026777420192956924,-0.006230669096112251,0.016101548448204994,0.12557591497898102,0.07904601097106934,0.0835549458861351,-0.056996505707502365,-0.1895991563796997,0.002131305867806077,-0.054531171917915344,0.11680025607347488,0.09176730364561081,-0.11155538260936737,0.10410362482070923,-0.06894755363464355,-0.0884995311498642,-0.08721951395273209,-0.00817098468542099,-0.1058935821056366,-0.07129330188035965,0.08396699279546738,-0.038772862404584885,-0.06086535006761551,0.02339453436434269,0.08597344160079956,-0.08781617879867554,0.023323925212025642,-0.11290130764245987,-0.06499548256397247,0.00845447275787592,0.1533375233411789,-0.02140911854803562,-0.03370670601725578,-0.014497504569590092,0.0032726326026022434,0.07983922213315964,0.06738613545894623,-0.05227154493331909,0.013475533574819565,-0.12316175550222397,-0.043252721428871155,0.07937831431627274,0.10571343451738358,-0.08039596676826477,-0.09299755841493607,0.02242853306233883,-0.10726545751094818,-0.06183478236198425,-0.039064131677150726,0.010591440834105015,-0.15463539958000183,-0.11944667249917984,-0.15015985071659088,0.010456950403749943,-0.14821141958236694,-0.055574409663677216,-0.037266671657562256,0.009946076199412346,-0.008090869523584843,0.01771281473338604,0.0810227319598198,-0.050519172102212906,-0.004607328213751316,0.029888378456234932,-0.13121654093265533,0.0507810078561306,-0.024286307394504547,0.026124058291316032,0.0303016509860754,-0.03270846605300903,0.18551018834114075,0.15667256712913513,0.0476074293255806,0.038096293807029724,0.04968876764178276,0.07733222842216492,0.01975267566740513,0.13757245242595673,0.12870573997497559,0.06874679028987885,0.1472112238407135,0.0687393769621849,0.0775751993060112,0.004022359382361174,-0.1067192330956459,0.12759986519813538,0.1030612513422966,0.11247853934764862,0.09164535999298096,0.1412680745124817,-0.05511574447154999,0.16330628097057343,-0.05888620764017105,-0.05632702633738518,-0.09149547666311264,0.050331491976976395,-0.08798233419656754,-0.01795179769396782,-0.0708070695400238,-0.004989220295101404,0.15172168612480164,0.016300614923238754,0.04567369073629379,-0.0785786360502243,-0.11896167695522308,0.06261090934276581,0.007658444344997406,-0.0002741146308835596,0.06735929101705551,-0.09748464077711105,-0.09788522124290466,0.10328861325979233,0.06308840960264206,0.006206828635185957,-0.08046994358301163,-0.09934096038341522,-0.06489618122577667,0.03291882947087288,-0.021427465602755547,0.005115887150168419,0.01034577377140522,0.2154715657234192,-0.020919905975461006,0.014573517255485058,-0.02117900364100933,0.02081465534865856,-0.16828520596027374,-0.04710311070084572,-0.11165395379066467,-0.016626613214612007,-0.027163349092006683,0.08138545602560043,-0.05790718272328377,0.03205220773816109,0.1208932027220726,-0.05145489424467087,0.006452665198594332,0.06391274929046631,0.11710409820079803,0.06751938164234161,0.03896356374025345,-0.010544219054281712,-0.00894832145422697,-0.029299942776560783,-0.01725507155060768,0.1619754284620285,0.06754586100578308,-0.06089559197425842,-0.07859673351049423,-0.1186162531375885,-0.09317343682050705,0.015002883039414883,-0.05897572636604309,0.08890806883573532,0.048699382692575455,0.09628050029277802,0.10931963473558426,0.06936882436275482,0.08724868297576904,-0.08409189432859421,-0.08290480077266693,-0.017483055591583252,-0.11176665872335434,-0.01308313850313425,0.06904321163892746,0.03204743191599846,0.01658596284687519,-0.019486578181385994,-0.10563113540410995,0.06732911616563797,0.16520734131336212,0.1782136857509613,0.13521485030651093,0.10246125608682632,0.01996700093150139,-0.1735721379518509,-0.1362738013267517,-0.03489091992378235,-0.15713803470134735,-0.12323641777038574,0.08744064718484879,0.045418109744787216,-0.009284010156989098,-0.13604246079921722,-0.11567265540361404,0.02638496272265911,-0.03948921337723732,0.19695019721984863,-0.024343647062778473,-0.015524632297456264,-0.07555944472551346,0.0772298276424408,-0.015077930875122547,-0.15595093369483948,0.021346939727663994,0.08712591230869293,-0.042149823158979416,0.09902917593717575,0.0325637087225914,-0.055673640221357346,-0.16273345053195953,-0.16184477508068085,-0.1305072009563446,-0.12413426488637924,-0.061792921274900436,0.03924157842993736,0.010675579309463501,-0.004613521508872509,0.06278616935014725,0.09277176856994629,-0.0542314276099205,-0.08446897566318512,-0.03295871987938881,-0.010833551175892353,0.089509978890419,-0.060851648449897766,-0.03078744374215603,-0.053076643496751785,-0.039904896169900894,-0.0030937176197767258,-0.03737465292215347,-0.13404135406017303,0.08328259736299515,-0.09201139211654663,-0.0257534459233284,-0.08361984044313431,0.024434028193354607,-0.09394097328186035,0.13212278485298157,0.08868131041526794,-0.016519097611308098,-0.02151462994515896,-0.10345681756734848,-0.07802542299032211,-0.03573456034064293,-0.1338968575000763,-0.00990424957126379,0.04175981134176254,0.07673555612564087,0.012475132010877132,-0.07038512080907822,0.039838001132011414,-0.12548409402370453,-0.13215981423854828,0.11078278720378876,-0.07964560389518738,-0.040829505771398544,-0.08483362197875977,-0.015578134916722775,-0.0878794714808464,0.037807755172252655,-0.060435712337493896,0.06252695620059967,0.027127642184495926,-0.13518288731575012,-0.14381378889083862,0.10529736429452896,0.03771449252963066,-0.0006651690928265452,-0.09749022871255875,0.02815559320151806,-0.01438883040100336,-0.0923611968755722,0.04392814263701439,0.029013263061642647,0.028238261118531227,0.02282841131091118,-0.07579300552606583,0.016224980354309082,0.1779073029756546,-0.10264429450035095,0.05571708828210831,0.11253318935632706,-0.03599445894360542,0.027121569961309433,0.02919526770710945,0.08117478340864182,0.08526414632797241,0.022170966491103172,0.05055767297744751,0.08257019519805908,0.00809811893850565,0.07522131502628326,-0.06829967349767685,0.02701565809547901,0.10542933642864227,0.0755782201886177,0.10480646044015884,0.06471561640501022,-0.09617558121681213,-0.04338398948311806,-0.118475042283535,0.055210888385772705,0.07102160900831223,-0.016030149534344673,0.009263225831091404,0.11810164898633957,0.08025241643190384,-0.1101575419306755,-0.032056331634521484,0.1633787453174591,-0.017557231709361076,0.051796939224004745,0.17793066799640656,-0.012994849123060703,-0.0370800606906414,0.014759656973183155,0.1468731313943863,-0.10669633001089096,-0.0021262695081532,-0.007140311878174543,-0.08426576107740402,0.08877681940793991,-0.14001335203647614,-0.07343059033155441,0.07647664099931717,0.08677785843610764,-0.07171134650707245,-0.0826624259352684,0.1637738198041916,-0.09752882272005081,-0.12130839377641678,0.12763749063014984,0.06288934499025345,-0.12377220392227173,0.011989840306341648,-0.10541856288909912,0.032643139362335205,-0.03857919201254845,0.08497761934995651,0.13383974134922028,-0.1225304901599884,-0.10436904430389404,0.11923616379499435,-0.12906096875667572,-0.05927316099405289,0.08753509819507599,0.08751533180475235,0.00970480963587761,-0.01595335453748703,-0.09643130749464035,0.028240572661161423,0.09537994116544724,-0.013596919365227222,0.02433348074555397,-0.0905040055513382,0.07231257110834122,-0.003808769630268216,-0.01846855692565441,0.05885915458202362,0.04615921154618263,0.040488291531801224,-0.05533882975578308,-0.12809152901172638,-0.1629316359758377,0.10038956254720688,0.19233019649982452,0.0327531099319458,0.19399850070476532,0.11261115223169327,-0.007364166434854269,-0.09663733839988708,-0.09347736835479736,0.1577291637659073,-0.09298224747180939,0.14082926511764526,-0.020046081393957138,-0.04246728867292404,0.07243272662162781,0.025968056172132492,0.07153580337762833,0.09267137944698334,0.003355467226356268,-0.0808676928281784,-0.08780615031719208,0.04300246760249138,-0.16539782285690308,0.08998597413301468,0.09301696717739105,-0.14610856771469116,0.07131943106651306,-0.1604590266942978,-0.08401554077863693,-0.004769281484186649,0.028091393411159515,0.059456031769514084,-0.10586269944906235,0.09330303221940994,0.012529519386589527,-0.044462889432907104,-0.058770909905433655,0.08797445148229599,0.10434101521968842,0.10326721519231796,0.036184221506118774,0.07518112659454346,-0.12840573489665985,-0.1267743706703186,-0.07962975651025772,0.11009111255407333,-0.08046767860651016,0.034514281898736954,0.14152275025844574,0.11700165271759033,-0.02979271300137043,-0.0015699481591582298,-0.028828702867031097,-0.06292179226875305,-0.10818655788898468,0.06698154658079147,0.04433419182896614,-0.056822389364242554,0.13195542991161346,0.1496076136827469,0.168516606092453,-0.00756293348968029,-0.10276120156049728,0.05945282429456711,-0.08339981734752655,0.0740705356001854,-0.002125534927472472,-0.09884342551231384,-0.024305051192641258,-0.13562753796577454,-0.07177869975566864,0.1030959039926529,0.16898253560066223,0.06427808851003647,0.1711353063583374,0.11058612912893295,0.08376277983188629,0.03647428750991821,-0.14132775366306305,-0.11639931797981262,0.08154375106096268,0.07696748524904251,-0.009636600501835346,0.03359231352806091,0.05469179525971413,-0.00213736854493618,-0.07903536409139633,0.00044600130058825016,-0.09641356766223907,-0.062352802604436874,-0.14252248406410217,0.062003519386053085,0.10489331185817719,-0.09931622445583344,0.1216968223452568,0.037630047649145126,0.009280327707529068,-0.09982545673847198,-0.03599445894360542,-0.06615343689918518,-0.10097189992666245,-0.022855039685964584,0.06681201606988907,0.1415155977010727,0.1572156697511673,0.13213835656642914,-0.1494545191526413,-0.03981517255306244,-0.045022569596767426,-0.03084389865398407,-0.040237244218587875,0.08321285247802734,0.12586310505867004,0.13793252408504486,0.12145644426345825,-0.06281255185604095,-0.024846192449331284,0.11907028406858444,0.05034755915403366,-0.009398972615599632,0.12016861140727997,0.15472471714019775,0.13637621700763702,0.007218335755169392,-0.07287377864122391,0.006393115501850843,0.007379820570349693,-0.006897073704749346,-0.09654080867767334,0.08156075328588486,0.007548363879323006,0.035861290991306305,0.08650130033493042,0.07570147514343262,0.12460983544588089,-0.01133433636277914,-0.03904927521944046,0.1195322796702385,-0.11148862540721893,0.0878000259399414,0.053316760808229446,-0.023133115842938423,-0.07622388750314713,0.05870691314339638,-0.12319079041481018,-0.1698445826768875,-0.18313415348529816,0.06275688856840134,-0.07575470954179764,-0.03405997157096863,-0.08599042892456055,0.09471535682678223,0.14546646177768707,0.0008624277543276548,0.10159154236316681,0.04786883667111397,-0.14478161931037903,-0.08616825938224792,-0.03166533634066582,-0.1025579571723938,0.041542213410139084,0.14722555875778198,0.11395382881164551,-0.09253738820552826,-0.08286860585212708,-0.09889686107635498,-0.11474183946847916,-0.06304212659597397,-0.03793071582913399,-0.05558028817176819,0.032211340963840485,0.17877812683582306,0.16602303087711334,0.1144074946641922,0.03251096233725548,0.10176048427820206,0.10910606384277344,-0.025520682334899902,0.06698493659496307,0.046765103936195374,0.046793218702077866,-0.06840989738702774,0.07291220128536224,0.05604933202266693,0.02017550729215145,0.07355168461799622,-0.12658730149269104,-0.07681328058242798,0.12044534832239151,0.1370973438024521,0.08299949765205383,-0.03036314807832241,-0.0504787415266037,0.06635748594999313,0.045176345854997635,-0.06464330106973648,-0.049743980169296265,0.012331251055002213,0.0030498860869556665,0.031175965443253517,-0.07425925135612488,0.10489237308502197,0.12794165313243866,-0.13446274399757385,0.04493509978055954,-0.05786193162202835,-0.05033735930919647,0.09600785374641418,-0.12638498842716217,-0.16658392548561096,-0.14479012787342072,-0.10801507532596588,-0.09290768206119537,-0.0024006632156670094,0.025481663644313812,0.14774668216705322,-0.06843429803848267,0.06389355659484863,0.12308944016695023,-0.05339225009083748,0.027796290814876556,-0.10328169912099838,0.09952638298273087,0.13871151208877563,-0.0744602233171463,0.13719819486141205,0.08219952136278152,0.012243656441569328,0.006804894655942917,0.12284726649522781,-0.12407569587230682,0.17968633770942688,-0.06827531009912491,0.12125986814498901,-0.10403137654066086,-0.10083428770303726,-0.10185180604457855,0.15868514776229858,0.005098261404782534,0.08301644027233124,0.019967595115303993,-0.13858240842819214,-0.05250699073076248,0.07262302190065384,0.054925382137298584,-0.0515630878508091,-0.021302035078406334,-0.03885367885231972,-0.13958965241909027,0.015329264104366302,0.008586362935602665],"bias":[-0.0007266160100698471,0.04339979961514473,-0.09457627683877945,0.051867980509996414,-0.013658885844051838,-0.1159524992108345,0.02227691374719143,-0.12866340577602386,0.10329768061637878,-0.07830603420734406,-0.05596990883350372,0.06202543526887894,-0.023329710587859154,0.08140043169260025,-0.0431634783744812,-0.03696073219180107,-0.0470208078622818,0.13452322781085968,0.03660370409488678,0.056514039635658264,0.11192335188388824,-0.11658886075019836,-0.07450228929519653,-0.10392341762781143,-0.05927940830588341,0.12177059799432755,-0.05513494089245796,-0.057213857769966125,-0.05836157500743866,0.06407751142978668,-0.033565226942300797,0.07888749986886978]},"batchNorm":{"numFeatures":32,"eps":1e-05,"weight":[1.0126665830612183,1.0367069244384766,0.9948927164077759,0.9983833432197571,0.9096323251724243,1.0138765573501587,1.0452722311019897,0.9902538061141968,0.9735996723175049,0.9859832525253296,1.0231096744537354,1.0131226778030396,1.0251291990280151,1.0199906826019287,1.017743468284607,1.035693645477295,1.0293035507202148,1.016191005706787,0.9795480370521545,0.9663736820220947,0.9673972129821777,1.0096898078918457,0.9958430528640747,1.0045925378799438,1.0132429599761963,1.0189725160598755,1.0089420080184937,0.9420152306556702,0.9936743974685669,0.9867495894432068,1.014270544052124,1.0064438581466675],"bias":[-0.0012734961928799748,-0.015964675694704056,-0.006615578196942806,0.06541237235069275,-0.08197519928216934,-0.009033579379320145,0.02071680873632431,-0.013676241040229797,-0.07109541445970535,-0.05087026208639145,-0.018770234659314156,-0.024514492601156235,-0.009484290145337582,-0.015149916522204876,0.046294402331113815,-0.0034361325670033693,-0.030020473524928093,0.010469365864992142,-0.023329347372055054,-0.009639840573072433,-0.005577678792178631,0.024413984268903732,-0.03560253232717514,-0.03955686837434769,0.007585899438709021,0.043878477066755295,-0.01995025761425495,-0.061843276023864746,0.008544757030904293,-0.01751379854977131,0.000892918964382261,-0.002395229646936059],"runningMean":[0.0020039789378643036,0.0490952804684639,-0.10730728507041931,0.06381122767925262,0.028532663360238075,-0.13341869413852692,0.007535621058195829,-0.1620303839445114,0.11517559736967087,-0.061345700174570084,-0.07787279784679413,0.05855078250169754,-0.01941055990755558,0.051517195999622345,-0.057436611503362656,-0.05229326710104942,-0.058644771575927734,0.09118826687335968,0.03575555980205536,0.06685860455036163,0.1396952122449875,-0.1525614857673645,-0.09067461639642715,-0.09168881177902222,-0.10686469823122025,0.12128306925296783,-0.05700216814875603,-0.0620921291410923,-0.08099787682294846,0.060896992683410645,-0.054369036108255386,0.04383555054664612],"runningVar":[0.35106638073921204,0.5721782445907593,0.5139070153236389,0.25011128187179565,1.2238487005233765,0.7400949597358704,0.38619139790534973,0.8819000720977783,0.3836146891117096,0.3012648820877075,0.7374557852745056,0.19174662232398987,0.8217055201530457,0.47765710949897766,0.4763174057006836,0.51883465051651,0.5265690684318542,0.6935927867889404,0.6944607496261597,0.5761659741401672,0.670893669128418,0.5493044853210449,0.8010409474372864,0.37551841139793396,1.845179557800293,0.1996401995420456,0.3103731572628021,0.5865128040313721,0.7350302338600159,0.6765221357345581,0.6917863488197327,0.6244015097618103]},"usePool":true},{"conv":{"outChannels":64,"inChannels":32,"kernelSize":5,"padding":2,"weight":[-0.04981572926044464,0.035208381712436676,0.1028456762433052,0.01577501744031906,0.015815043821930885,-0.053299181163311005,-0.011504342779517174,0.04845195636153221,-0.009257151745259762,-0.029730454087257385,0.037410542368888855,-0.014760666526854038,0.06265014410018921,0.02134469337761402,0.02380615659058094,-0.04821975529193878,-0.06492514908313751,-0.08395247161388397,-0.06037285551428795,-0.037111714482307434,0.07101783901453018,-0.0536290742456913,0.047130122780799866,-0.10144998133182526,0.029164565727114677,-0.12007775902748108,-0.042668797075748444,-0.04019482061266899,-0.03651970997452736,-0.0861295834183693,-0.0361478291451931,0.00010358003783039749,-0.06806707382202148,-0.004752646200358868,-0.02255120873451233,-0.1662166565656662,-0.11741482466459274,-0.013562838546931744,-0.054307881742715836,0.012402857653796673,-0.04108429327607155,-0.0025547638069838285,-0.04609591141343117,-0.00548539450392127,-0.03579745069146156,0.04192691668868065,0.08657488226890564,0.048876699060201645,-0.03392758220434189,-0.014101557433605194,0.09273508191108704,-0.013090081512928009,0.011153457686305046,0.05747343599796295,-0.00952883530408144,-0.04680928960442543,-0.038345906883478165,-0.007644680794328451,-0.07428732514381409,-0.032150350511074066,0.03463099151849747,0.04231375455856323,-0.0748903751373291,-0.08922150731086731,-0.015340489335358143,-0.0018809010507538915,-0.012302312068641186,0.038215380162000656,0.01935705356299877,-0.04132509231567383,0.013827083632349968,-0.0001964300317922607,-0.06232847645878792,-0.02558198943734169,-0.0059438468888401985,0.016813306137919426,0.11042068898677826,0.05761153623461723,-0.06106838956475258,-0.02452288754284382,-0.008247428573668003,0.09386175870895386,-0.0011345342500135303,-0.06642872840166092,-0.047132689505815506,-0.11090070754289627,-0.01943567954003811,0.06878497451543808,-0.04201959818601608,0.11904709041118622,0.007057120557874441,0.11651859432458878,0.10730575770139694,0.013593148440122604,-0.08358604460954666,0.022026317194104195,-0.0028444495983421803,0.05040517821907997,0.06200108677148819,-0.08634162694215775,0.0755310207605362,0.05794541537761688,0.049284107983112335,-0.024953430518507957,0.0035512205213308334,0.03853395953774452,-0.03253268450498581,0.010530549101531506,0.017127493396401405,0.06672300398349762,0.010210650973021984,0.0006791617488488555,0.03764444589614868,-0.040597159415483475,0.05572705715894699,0.0031491881236433983,-0.02369053103029728,0.03437340632081032,-0.018701422959566116,-0.05539146810770035,-0.12890078127384186,-0.05175266042351723,-0.04306194186210632,-0.03151649981737137,-0.05182255432009697,-0.004906686954200268,-0.0025526948738843203,-0.0385623425245285,-0.097173310816288,-0.08279400318861008,0.03073359653353691,0.0768512636423111,0.09288060665130615,-0.06333139538764954,0.04771862551569939,0.05176417529582977,0.09826585650444031,0.05030013993382454,0.009717672131955624,0.02699885331094265,0.006250130012631416,0.0355926938354969,-0.03953057527542114,0.04680768772959709,0.09933242201805115,-0.07178601622581482,0.04670422151684761,-0.0076873935759067535,0.023230906575918198,-0.0015855294186621904,0.07854773104190826,-0.004734153393656015,-0.10518261790275574,-0.019387556239962578,-0.08850371837615967,0.05928780511021614,0.04468860849738121,0.04958373308181763,0.07631252706050873,0.11544396728277206,-0.025871802121400833,-0.04968005046248436,0.06605830043554306,0.02961987815797329,-0.04839701950550079,0.006834194529801607,0.06238561123609543,-0.019966306164860725,-0.010362549684941769,0.016410136595368385,-0.04386626556515694,-0.07314480096101761,-0.06758134067058563,-0.11423297226428986,-0.13303975760936737,-0.025337811559438705,-0.1105978861451149,0.04363508149981499,-0.04310320317745209,-0.08985915780067444,-0.09173837304115295,-0.10423331707715988,-0.031843800097703934,4.7107030695769936e-05,0.02385779656469822,0.05951152741909027,-0.06248270347714424,-0.07462908327579498,0.04028375446796417,-0.023578882217407227,0.06991081684827805,-0.057815104722976685,-0.04898599907755852,0.035098593682050705,-0.05038094520568848,-0.0652441754937172,-0.07612257450819016,-0.08003062754869461,-0.05439317226409912,0.03880704566836357,-0.026426609605550766,-0.095150426030159,-0.0832134410738945,-0.0001367170480079949,0.04384727030992508,0.06217413395643234,-0.03248291090130806,0.007812065538018942,0.028498895466327667,0.0675080269575119,0.11058482527732849,0.012981560081243515,0.055932577699422836,0.056166503578424454,0.016930822283029556,-0.0914733037352562,-0.05391909182071686,0.006980602163821459,-0.02244831994175911,0.03774021565914154,-0.06294527649879456,-0.045688364654779434,0.03946785628795624,-0.06203810125589371,-0.028725778684020042,0.0026857606135308743,-0.07123056054115295,0.04826757684350014,0.004808228928595781,0.0118826599791646,0.015532713383436203,0.08074906468391418,-0.028021611273288727,-0.02276763692498207,-0.03197019547224045,0.038638945668935776,0.008376399986445904,0.09313802421092987,0.08079215884208679,0.07673725485801697,-0.06940511614084244,-0.010663089342415333,0.03724426403641701,-0.005775292869657278,0.0008004840929061174,-0.025115307420492172,-0.010893412865698338,0.005590008571743965,-0.029411928728222847,0.02844066359102726,-0.02135135792195797,0.11694116145372391,0.0419139601290226,0.05106913298368454,0.10922843962907791,-0.041109275072813034,0.02218148484826088,0.028072381392121315,0.08890648931264877,0.0658341497182846,0.01131022721529007,-0.04365249350667,0.05341336503624916,0.06860736757516861,-0.07018838077783585,-0.09878064692020416,-0.0013673270586878061,-0.07438792288303375,-0.05963603034615517,-0.01777341216802597,-0.028539134189486504,-0.1252203732728958,-0.06750355660915375,-0.04734440892934799,-0.0516800694167614,0.06955549120903015,-0.09135312587022781,0.027555927634239197,0.027051815763115883,0.01616867631673813,-0.028596708551049232,-0.006582421250641346,0.016926130279898643,-0.0009893616661429405,0.004169599153101444,0.016116082668304443,-0.008698984049260616,-0.04639708623290062,-0.04731705039739609,0.039524421095848083,-0.023693138733506203,-0.08771052956581116,0.09638415277004242,0.04705221951007843,0.041077256202697754,0.03389010950922966,-0.04570808261632919,-0.016419552266597748,0.06985705345869064,-0.02831912972033024,-0.0719696506857872,0.00803800206631422,0.00038581396802328527,-0.06970217078924179,0.09094718098640442,-0.03927738592028618,-0.047373782843351364,-0.03184044361114502,0.027065644040703773,0.021262234076857567,0.018308546394109726,-0.07731197029352188,0.09287315607070923,-0.0058861831203103065,0.0276555884629488,0.0526832640171051,-0.04931548610329628,-0.04824908822774887,0.02637954242527485,0.039928093552589417,0.022491082549095154,0.057220879942178726,0.025288783013820648,-0.08432336896657944,0.01266594510525465,0.004856090992689133,-0.05745479092001915,0.013950606808066368,-0.005675644148141146,-0.07155527174472809,-0.04333830252289772,0.029664931818842888,0.035138532519340515,-0.07994689047336578,-0.013222269713878632,0.01629771664738655,-0.0874858871102333,0.017743850126862526,-0.08001314848661423,-0.03640976920723915,0.046601634472608566,0.015734311193227768,0.022870345041155815,-0.029424725100398064,-0.08924493193626404,-0.04627390205860138,-0.02264568768441677,0.026491286233067513,-0.03395535424351692,0.0089478250592947,0.10585305839776993,0.02491742931306362,-0.008250933140516281,-0.03797871991991997,-0.03959584981203079,-0.0597810372710228,-0.08755093812942505,-0.0088594239205122,-0.11122821271419525,-0.03318813443183899,0.028131281957030296,0.0149806197732687,0.007063727360218763,-0.051335353404283524,0.03118845634162426,0.025440944358706474,0.07033870369195938,0.0794372633099556,-0.10692974179983139,-0.11644814163446426,-0.001081472379155457,-0.0027373158372938633,0.04103045165538788,-0.019457604736089706,-0.035244498401880264,-0.09240148216485977,-0.060748081654310226,0.032888736575841904,0.015765393152832985,-0.0616094172000885,-0.032718997448682785,-0.030287228524684906,0.06434334814548492,0.018554160371422768,-0.07879216223955154,0.012403322383761406,0.07687900960445404,0.10274601727724075,0.07563275098800659,0.01566251926124096,-0.024039246141910553,0.0933784544467926,0.019348464906215668,-0.05858548730611801,-0.021785948425531387,0.0545806922018528,0.05767878144979477,0.10196413844823837,-0.001691434415988624,0.04138631746172905,0.03871181979775429,0.02642051689326763,0.03354477137327194,-0.05276227369904518,-0.012509006075561047,-0.013519244268536568,-0.015488485805690289,-0.034584566950798035,-0.06832639873027802,-0.06310240924358368,0.09206099808216095,0.1020844429731369,0.05763048678636551,-0.014797355979681015,-0.0045737517066299915,-0.0388106033205986,0.05658858269453049,-0.06719043105840683,-0.01229073479771614,0.005574997514486313,0.028637658804655075,0.10189741104841232,0.06299656629562378,0.05661864951252937,-0.10141029953956604,-0.030603114515542984,-0.0008634378900751472,0.05327164754271507,-0.03219449147582054,0.04531950131058693,0.04908781871199608,-0.04121449589729309,0.0065590315498411655,-0.0027957262936979532,0.06395693123340607,0.06336728483438492,0.1633673906326294,0.05311170220375061,0.03486889973282814,0.009208784438669682,0.0022032116539776325,-0.12940391898155212,-0.02186530828475952,-0.03101060539484024,-0.03224378079175949,-0.0668933168053627,-0.035415779799222946,-0.06350622326135635,-0.11103929579257965,-0.03154874965548515,-0.022253910079598427,0.06893501430749893,0.008048661053180695,0.04098222777247429,0.017497457563877106,0.03392782434821129,0.0736822560429573,0.08282361179590225,0.00582823995500803,-0.02548004873096943,0.01779329404234886,-0.02472846396267414,0.05677839368581772,-0.026156730949878693,-0.001498426659964025,-0.11869869381189346,0.027955183759331703,-0.01912718079984188,0.05362066254019737,-0.01829620450735092,0.06014273315668106,0.04771462827920914,-0.07423774152994156,0.041933462023735046,-0.06587343662977219,0.008870971389114857,0.006096560508012772,0.04797888547182083,0.07928597927093506,0.02837790735065937,0.003648062003776431,0.05305695906281471,0.0170744601637125,0.07002197951078415,-0.07272983342409134,0.032682742923498154,0.08318327367305756,0.07605814933776855,-0.06629128009080887,-0.07298324257135391,-0.0020869537256658077,0.08236073702573776,0.0614684522151947,0.027301598340272903,-0.0291142538189888,-0.07011952996253967,-0.054280612617731094,-0.059852197766304016,-0.03255898877978325,-0.02743236906826496,0.024935055524110794,-0.07564938068389893,-0.06223215162754059,0.053234707564115524,0.07787055522203445,0.056107740849256516,0.0015740172239020467,0.06632593274116516,0.01467773038893938,-0.016490718349814415,-0.029864707961678505,0.029872409999370575,0.021834908053278923,0.002921160077676177,-0.0019632906187325716,0.003973770420998335,0.00015853279910515994,0.0033980815205723047,-0.005301408935338259,-0.03979869931936264,0.06509926915168762,-0.054248906672000885,-0.005111816804856062,-0.001992796780541539,-0.037649355828762054,0.04544951394200325,-0.024936791509389877,-0.02976163476705551,0.014596096239984035,0.07800885289907455,-0.09601811319589615,0.026775604113936424,0.026394130662083626,0.027935335412621498,-0.007949316874146461,0.01004277728497982,0.014995800331234932,0.008694423362612724,0.013937830924987793,0.08187184482812881,-0.009130357764661312,-0.016876261681318283,-0.07394187152385712,0.023600351065397263,-0.00576443038880825,-0.08579057455062866,-0.08644172549247742,-0.04857907071709633,-0.08401191234588623,0.0076155164279043674,-0.10195821523666382,-0.08742142468690872,-0.012814775109291077,-0.061363860964775085,0.05471927300095558,-0.060682110488414764,-0.025212902575731277,-0.04296616092324257,-0.08717367798089981,0.06633010506629944,-0.055077265948057175,0.016084272414445877,-0.09483421593904495,-0.011555029079318047,-0.07765249907970428,0.07662288099527359,-0.0435025654733181,0.0808596983551979,0.009558480232954025,0.11476355046033859,-0.004570115823298693,-0.0011583055602386594,0.0008935499936342239,-0.05244171991944313,0.07499393075704575,0.0034609974827617407,0.07299555093050003,0.022551435977220535,0.00382932904176414,0.061824776232242584,-0.057428061962127686,-0.08647096902132034,-0.003596492111682892,0.0115134222432971,0.021621188148856163,0.09987925738096237,0.026496322825551033,-0.04440655559301376,-0.05617310479283333,0.04013392701745033,-0.046660032123327255,-0.05982068181037903,-0.055703070014715195,-0.07473088055849075,0.0043859765864908695,0.042881812900304794,-0.05005883052945137,-0.09052810072898865,-0.008964493870735168,-0.05813276767730713,-0.0614822581410408,0.08177874237298965,0.01504204049706459,0.08699063956737518,0.020195716992020607,0.009534784592688084,0.020474115386605263,-0.03342732787132263,0.03717724606394768,-0.014698674902319908,0.08207941800355911,0.05034692585468292,0.05233420059084892,-0.03623010963201523,-0.05897999554872513,-0.005909000523388386,0.06131588667631149,-0.007140491623431444,0.08266493678092957,0.007165918592363596,-0.012335985898971558,0.07720612734556198,0.02569819986820221,-0.0014383683446794748,-0.06930982321500778,0.02417108416557312,0.11231406778097153,0.008208848536014557,0.012567189522087574,-0.024191567674279213,-0.0853729248046875,-0.024891916662454605,-0.08296079933643341,-0.011672437191009521,0.007213078439235687,0.03753189370036125,-0.019017064943909645,-0.007359659764915705,0.08312325179576874,-0.0007039930205792189,-0.07750387489795685,-0.07238484174013138,-0.03127827122807503,-0.0040815286338329315,-0.0717112272977829,0.045671503990888596,-0.0401989109814167,0.03948204591870308,-0.011806958355009556,0.13363614678382874,-0.030906178057193756,0.03391575068235397,-0.014487950131297112,-0.03363007679581642,-0.021421663463115692,0.01863832026720047,0.006246377248317003,0.07603521645069122,0.04187096282839775,0.10112707316875458,-0.062289800494909286,-0.01638847030699253,-0.03734026476740837,-0.022757498547434807,0.008567903190851212,-0.0612984225153923,0.03230384364724159,-0.05703304708003998,0.03428271785378456,0.0012967921793460846,0.0332217700779438,-0.08899884670972824,-0.07530919462442398,-0.011579426005482674,-0.01616695150732994,-0.01354854553937912,0.027185918763279915,-0.09509123861789703,0.011072454042732716,-0.09658022969961166,-0.05888931453227997,-0.09761868417263031,0.015827227383852005,0.005669697187840939,0.0007448397227562964,0.019449401646852493,-0.03701551631093025,-0.02088019624352455,0.02517428994178772,0.08620472997426987,0.011837713420391083,0.06974813342094421,0.034623660147190094,0.09795518964529037,0.026621747761964798,-0.05639725178480148,-0.004605723079293966,-0.04431113973259926,-0.02643856219947338,-0.038010161370038986,-0.012430663220584393,-0.11214625835418701,0.010217150673270226,-0.0436333604156971,0.04609447345137596,0.039006177335977554,0.0066800289787352085,0.04545530304312706,0.04027709737420082,-0.09190461039543152,0.004730645567178726,0.06000974774360657,-0.07354740798473358,0.07948939502239227,0.05806710198521614,0.08647631108760834,-0.004979673307389021,0.03594828024506569,-0.02658907324075699,-0.017788736149668694,0.020231042057275772,-0.08278772979974747,0.03968428820371628,-0.05483117699623108,0.03654676303267479,-0.03671817481517792,-0.016112972050905228,-0.07377659529447556,0.00879475474357605,-0.09990386664867401,0.09371662884950638,-0.030318383127450943,0.00039218078018166125,0.1375708132982254,0.07450196146965027,-0.07449273020029068,-0.01386897824704647,-0.02235054038465023,0.04878615215420723,0.05040275305509567,-0.0629335343837738,-0.08080562949180603,-0.03827988728880882,-0.011529787443578243,-0.05806419253349304,-0.029989629983901978,-0.09716629236936569,-0.039635468274354935,-0.015519787557423115,-0.003482091473415494,-0.09253499656915665,-0.010189100168645382,-0.05921963229775429,0.01401640847325325,-0.0009711054735817015,0.0836455300450325,0.018690813332796097,0.025021249428391457,0.027158189564943314,0.0858435109257698,0.015110665000975132,0.07512921839952469,0.08438428491353989,0.041830748319625854,-0.008621253073215485,-0.031243784353137016,-0.00827794149518013,0.00195313710719347,-0.014342059381306171,0.06358975172042847,-0.02113453485071659,-0.024394063279032707,0.005377070978283882,0.06465765833854675,-0.08862486481666565,-0.04444168508052826,-0.015069173648953438,0.0908796563744545,0.0671740174293518,0.0037889161612838507,-0.015547051094472408,-0.035912804305553436,-0.02076631225645542,0.005196894984692335,0.040851056575775146,-0.1040746197104454,0.05024115741252899,0.056090015918016434,-0.04196375608444214,-0.016322758048772812,-0.062105026096105576,0.03565240651369095,0.10606873035430908,-0.02008678764104843,0.033580079674720764,-0.07325983792543411,-0.08812317252159119,-0.05655122920870781,-0.04488968104124069,0.03649507835507393,-0.008194410242140293,0.0006321714608930051,-0.03546719625592232,0.05626137927174568,0.03736310079693794,-0.0831971988081932,-0.05371208116412163,-0.02823045291006565,0.01580805890262127,-0.05933257192373276,0.0014575842069461942,0.059122927486896515,0.07835591584444046,0.004382571205496788,-0.002439214149489999,-0.016380341723561287,0.08501192182302475,0.055452920496463776,0.10570987313985825,0.05677484720945358,-0.06892260164022446,0.07014616578817368,0.09474369883537292,0.06304958462715149,-0.014651777222752571,-0.06768283247947693,0.04950055852532387,0.04964520409703255,0.03667571023106575,-0.07766761630773544,-0.02676939219236374,-0.03262732923030853,0.05207107216119766,0.06613105535507202,0.054365500807762146,-0.022326134145259857,0.07195392996072769,-0.006398756522685289,0.0188142117112875,-0.04102766513824463,0.0292790699750185,0.1344759315252304,0.08682174235582352,0.04030232131481171,0.0812755599617958,-0.07167825847864151,0.015698444098234177,-0.06853827834129333,0.011548176407814026,0.0148478914052248,-0.048315420746803284,0.04609017074108124,0.037044767290353775,0.019301235675811768,0.02333047054708004,0.08247938752174377,0.016413038596510887,-0.03229929879307747,0.06681855767965317,-0.04202931001782417,0.06900309026241302,-0.042579684406518936,0.029336147010326385,0.11565762758255005,0.02114066109061241,-0.06701259315013885,0.02872973494231701,0.011791937984526157,-0.039527032524347305,0.008943572640419006,-0.034058209508657455,0.010213746689260006,0.10298453271389008,0.044681742787361145,0.12422221153974533,-0.039811331778764725,0.03345871716737747,0.038569189608097076,0.025972360745072365,0.05643882974982262,-0.02572038397192955,-0.012349288910627365,0.021187977865338326,0.09993194788694382,0.09637797623872757,-0.05823766440153122,0.04866185039281845,-0.04670606181025505,-0.06021387130022049,-0.034001633524894714,-0.05796903744339943,-0.07201970368623734,0.017149927094578743,-0.008494656533002853,0.09091561287641525,0.011533746495842934,0.07444989681243896,-0.038790829479694366,0.0729437842965126,0.023973489180207253,-0.04115169495344162,0.004705746658146381,-0.037464190274477005,0.013757877983152866,-0.03105846233665943,-0.05519471317529678,-0.028405826538801193,-0.035588208585977554,-0.10152788460254669,-0.06007695570588112,0.04410705342888832,-0.008091138675808907,0.07482241839170456,-0.006937097758054733,0.11006177961826324,-0.06754427403211594,0.04366741701960564,0.03208363056182861,0.04423951357603073,0.09919362515211105,0.04985935240983963,-0.06914626806974411,0.03565149009227753,0.03687186539173126,-0.03187869116663933,0.05629800632596016,0.05049261450767517,-0.0877438634634018,-0.03652146831154823,-0.10916066914796829,-0.05996641516685486,0.02663026750087738,-0.0180102176964283,0.011108783073723316,0.09752567112445831,-0.10144811868667603,-0.003694892628118396,-0.018649769946932793,0.07060139626264572,-0.040072888135910034,0.07289046794176102,0.04620472341775894,0.05327525734901428,0.06801288574934006,-0.009897802956402302,0.008242902345955372,0.03193323314189911,-0.03711976110935211,-0.043717388063669205,0.04770846664905548,0.011888561770319939,0.03117501735687256,0.08677308261394501,0.018251797184348106,0.08039064705371857,0.023477395996451378,-0.006028555333614349,-0.022588452324271202,0.02140248380601406,-0.09918195754289627,0.06086692214012146,0.07552502304315567,-0.037680190056562424,-0.020823858678340912,0.040975943207740784,-0.08641204982995987,0.014605598524212837,-0.08004452288150787,0.038401756435632706,-0.011125091463327408,-0.012999432161450386,-0.05071784928441048,-0.03543193265795708,-0.030486976727843285,0.022339504212141037,-0.07139401137828827,-0.09514133632183075,0.04010886326432228,0.027105391025543213,-0.01875477284193039,0.06481567025184631,0.05465083196759224,0.042884837836027145,-0.03708762302994728,-0.026471314951777458,-0.09116552025079727,-0.07833731919527054,-0.016449593007564545,-0.059976402670145035,0.032196301966905594,-0.024093931540846825,-0.1059035211801529,0.022959351539611816,0.03153066337108612,-0.013662180863320827,0.014188719913363457,0.06816981732845306,0.07657665759325027,0.028513452038168907,-0.06616315990686417,-0.012980210594832897,-0.004972230643033981,-0.07035601139068604,-0.06768456101417542,-0.07208099216222763,0.040694113820791245,0.053921498358249664,-0.049251049757003784,0.05285505950450897,0.0014325404772534966,-0.05130435526371002,-0.08932280540466309,0.027853267267346382,0.06419099122285843,-0.0837206095457077,-0.09944210946559906,-0.024541011080145836,-0.1321285367012024,0.01591837964951992,-0.04291143640875816,-0.038707755506038666,-0.08299554139375687,0.025837035849690437,0.026610996574163437,-0.06698428094387054,-0.037710122764110565,-0.10093656927347183,0.01244865357875824,0.014580047689378262,-0.03626004233956337,-0.12488437443971634,-0.0956811010837555,-0.10332384705543518,0.010494783520698547,-0.036240626126527786,-0.06013915315270424,-0.0025563116651028395,0.019047845155000687,-0.028144394978880882,-0.046538595110177994,-0.07314910739660263,-0.07091965526342392,-0.005471157841384411,-0.06892669945955276,0.03322974592447281,0.03990156576037407,0.03905028477311134,-0.10691206902265549,-0.09695687890052795,-0.061684392392635345,0.047063037753105164,0.08570552617311478,-0.011314536444842815,0.022561965510249138,0.021781684830784798,0.029283422976732254,0.022404633462429047,-0.0006464110338129103,-0.03529044985771179,-0.06322705000638962,0.02387821488082409,-0.07385317981243134,-0.051904767751693726,-0.06711983680725098,0.02518477663397789,-0.017977386713027954,-0.10166311264038086,-0.09972970187664032,-0.08222280442714691,-0.01476837508380413,0.02534058317542076,-0.03967911750078201,0.027865538373589516,0.024015987291932106,-0.02438030019402504,0.046537842601537704,-0.0008014676859602332,-0.05419610068202019,-0.005088901147246361,-0.06957351416349411,-0.07171899080276489,0.02551092579960823,-0.01112807635217905,0.030370214954018593,-0.058169953525066376,0.017207276076078415,-0.009489906951785088,-0.044931817799806595,-0.06701603531837463,-1.3102289813105017e-05,-0.027441147714853287,0.01568976230919361,0.03651150315999985,0.007149703335016966,0.042201537638902664,-0.046211883425712585,0.07049519568681717,0.042314618825912476,-0.0700174868106842,-0.10283342748880386,-0.06430108100175858,-0.10938014090061188,-0.06000799685716629,-0.10565121471881866,-0.06373313814401627,-0.019847342744469643,0.06522952765226364,-0.029435530304908752,0.008897108025848866,-0.009073415771126747,-0.04382065311074257,-0.10207975655794144,-0.052908603101968765,-0.09045964479446411,-0.10391705483198166,-0.07140621542930603,0.014564166776835918,0.02493124268949032,0.034379858523607254,-0.10384949296712875,0.08348219096660614,0.04842470958828926,-0.05989435315132141,-0.022141072899103165,0.037957340478897095,0.034523095935583115,0.03569376468658447,0.03801312670111656,0.034548040479421616,-0.06180089712142944,0.03604602813720703,0.024905918166041374,0.04445508494973183,0.053256429731845856,-0.05159503221511841,-0.04554365947842598,0.0057579101994633675,0.09249500185251236,0.07228565216064453,0.022892817854881287,-0.042298879474401474,0.048649732023477554,0.022797519341111183,0.09066208451986313,-0.02253354899585247,-0.007455464452505112,0.07440795004367828,0.09065648168325424,-0.033481575548648834,-0.06406856328248978,-0.058939605951309204,-0.0032341666519641876,-0.02891474775969982,0.04221256822347641,0.015858151018619537,0.036429110914468765,-0.07581973820924759,-0.055984869599342346,-0.06527888029813766,-0.06562841683626175,0.0354299396276474,0.01824628747999668,0.11137034744024277,-0.01602347008883953,0.08988294750452042,0.06457845866680145,-0.08000268042087555,0.023997711017727852,0.08491500467061996,0.012082233093678951,-0.06221052631735802,-0.04571043699979782,-0.021377626806497574,0.047934457659721375,0.005672129802405834,0.08311519771814346,0.12807294726371765,0.0133336978033185,0.03439351171255112,-0.028980279341340065,0.02728370949625969,0.05819573625922203,0.02202676609158516,0.11236679553985596,0.036404646933078766,-0.026326797902584076,0.05298178270459175,-0.08083026856184006,0.05258825048804283,-0.06586385518312454,-0.10301204025745392,-0.008472817949950695,0.11700275540351868,0.09308382868766785,0.11744369566440582,-0.09095783531665802,-0.00720339035615325,0.014117102138698101,0.07868373394012451,0.02354292757809162,-0.08420585095882416,0.0700552761554718,-0.006625410169363022,0.07216063886880875,0.02697484754025936,-0.04303582012653351,0.08856373280286789,0.045019447803497314,0.027263447642326355,0.0839097797870636,0.0571151040494442,-0.006817220710217953,0.0022641096729785204,0.026532698422670364,-0.059685539454221725,0.05511074885725975,-0.028732044622302055,0.0499957799911499,0.058188315480947495,0.014177071861922741,0.008855011314153671,0.06538749486207962,0.07384810596704483,0.10894794017076492,-0.022366847842931747,-0.06240567937493324,0.038300368934869766,-0.04146386682987213,0.003866926534101367,-0.05080198496580124,0.013088071718811989,0.06764530390501022,-0.04282449185848236,-0.019409112632274628,0.00294110388495028,0.019022133201360703,0.05898359790444374,0.001661604968830943,0.03050023503601551,0.01424827054142952,0.07099390774965286,-0.00035508180735632777,0.002084124833345413,0.028526127338409424,0.05807129666209221,-0.0341515988111496,0.04735403135418892,0.005496257916092873,0.006190991494804621,-0.07987260073423386,0.06094787269830704,-0.016098080202937126,0.07618266344070435,0.1417538970708847,0.06160019338130951,0.09198204427957535,0.003091578371822834,0.006457129959017038,0.04242975264787674,-0.027876118198037148,0.10208025574684143,0.05378992110490799,0.015724219381809235,0.017574885860085487,-0.040599189698696136,0.10317718237638474,-0.048769328743219376,0.04460280388593674,0.011416962370276451,-0.03500334918498993,-0.0028672937769442797,0.009232604876160622,0.03846709430217743,-0.014050403609871864,-0.061397239565849304,0.0691143050789833,-0.013143357820808887,-0.006114163435995579,-0.002142020035535097,-0.007127772085368633,-0.10597330331802368,-0.07377346605062485,-0.04441799968481064,-0.043510887771844864,-0.07320591807365417,0.007633233442902565,-0.06237807869911194,0.009054223075509071,-0.0715971291065216,-0.0060646734200417995,0.0392066091299057,-0.06249840930104256,0.08228926360607147,0.047861240804195404,0.03159865364432335,0.03438285365700722,-0.1013910099864006,0.033947162330150604,-0.041195522993803024,0.033614251762628555,0.07766438275575638,-0.07306124269962311,0.018414776772260666,0.04505370184779167,-0.03604287654161453,-0.07384475320577621,0.0019962082151323557,-0.050523072481155396,-0.07747206091880798,-0.04537278041243553,0.1363094002008438,0.031103968620300293,-0.0216286089271307,-0.016457712277770042,-0.07688557356595993,-0.031623270362615585,-0.05253651738166809,-0.016173698008060455,0.031093185767531395,0.019216226413846016,0.006408472545444965,-0.08897373080253601,0.037752941250801086,-0.015913527458906174,0.045839823782444,0.06828033179044724,-0.03506691753864288,-0.04308649152517319,-0.03973500430583954,-0.04768628254532814,-0.04583375155925751,0.039943844079971313,0.04300449416041374,-0.051011282950639725,0.056181780993938446,-0.06988824903964996,-0.045359473675489426,-0.1138458177447319,-0.08836302161216736,0.017920415848493576,0.08192749321460724,-0.007066667079925537,-0.012365440838038921,-0.09996951371431351,-0.04582897201180458,0.11580119282007217,0.07572854310274124,0.07647274434566498,0.003811116563156247,-0.028881730511784554,0.1146039366722107,-0.0015729322331026196,-0.05810166150331497,0.06579503417015076,-0.024424787610769272,0.017215032130479813,0.006799896713346243,0.06000566855072975,0.04593801870942116,0.03501616790890694,0.11369477957487106,0.04632564261555672,0.033168692141771317,-0.02622872218489647,-0.024531252682209015,-0.08433177322149277,-0.044294193387031555,-0.06287261098623276,-0.07719194889068604,-0.04701903462409973,-0.04339013993740082,0.014997593127191067,0.04261937364935875,-0.043215062469244,0.05469999834895134,-0.08576487749814987,0.05082549899816513,0.02008361741900444,0.019336774945259094,0.06548136472702026,0.04187924787402153,-0.005750854033976793,-0.000570551143027842,-0.10810472071170807,-0.0010495089227333665,0.01911468617618084,-0.047114815562963486,-0.04436122253537178,0.003881430020555854,-0.0038289008662104607,-0.04222194477915764,0.09294368326663971,-0.07547830790281296,-0.06814974546432495,0.021449454128742218,0.10840199142694473,-0.084492027759552,0.007249864283949137,-0.0761433020234108,-0.005480790510773659,0.04550480842590332,-0.030858654528856277,-0.10886704921722412,0.049112215638160706,-0.004719946067780256,-0.03408098220825195,0.014223925769329071,0.022529812529683113,-0.014001471921801567,-0.08542276918888092,0.07103075832128525,-0.11293384432792664,-0.06169620528817177,-0.031087853014469147,-0.02037903666496277,0.03736205771565437,-0.04805358871817589,-0.024850711226463318,0.043593648821115494,-0.040377967059612274,-0.07314068078994751,-0.08079131692647934,-0.021002672612667084,-0.07718061655759811,-0.029544221237301826,0.020164335146546364,-0.004635489080101252,-0.01643310859799385,-0.061559196561574936,-0.057071980088949203,-0.04647887870669365,-0.0921575054526329,0.051945969462394714,-0.07430228590965271,-0.04771038889884949,0.007980762049555779,0.00639552716165781,0.02293509803712368,0.005952174309641123,-0.0946659967303276,0.024376727640628815,-0.06056893989443779,-0.0157367791980505,0.023559220135211945,-0.056281253695487976,-0.09101514518260956,-0.03752347081899643,-0.025048954412341118,-0.13985198736190796,-0.052420828491449356,0.026856377720832825,0.03623462840914726,0.10021618008613586,0.06999015063047409,-0.017761355265975,0.020355062559247017,0.015538916923105717,-0.04700108617544174,0.006093895994126797,0.048995617777109146,-0.05454210191965103,0.06152331084012985,-0.006613336969166994,0.03519566357135773,-0.09186738729476929,0.05480081960558891,0.06815065443515778,-0.019520962610840797,-0.003966073039919138,-0.06593860685825348,-0.024557732045650482,0.12542229890823364,0.03456546366214752,-0.035919297486543655,-0.1013939380645752,0.09654471278190613,0.029888104647397995,0.08865658193826675,0.01862695813179016,0.07138210535049438,0.050236355513334274,-0.06940751522779465,0.01783880777657032,-0.028493547812104225,-0.08475209027528763,0.06266526132822037,0.027915962040424347,0.06810244172811508,0.010323530063033104,0.01339580025523901,-0.05529850721359253,0.08746660500764847,-0.03431995213031769,-0.022759055718779564,-0.008159922435879707,-0.1304072141647339,-0.0764051154255867,-0.09791281074285507,0.025256624445319176,-0.07911918312311172,0.10454992949962616,0.1326134204864502,0.11234595626592636,-0.04761195927858353,0.04375587776303291,0.028168469667434692,-0.026590995490550995,-0.041581083089113235,0.10255333036184311,0.005154524929821491,0.043042026460170746,-0.06841255724430084,-0.007593411486595869,0.052136242389678955,0.02053837850689888,0.07997865974903107,0.020667435601353645,0.04908466711640358,-0.08369489014148712,-0.06678330898284912,0.06674589961767197,0.13302332162857056,-0.03382489085197449,0.02724347449839115,-0.10276094079017639,0.014607686549425125,0.019058339297771454,0.09571392089128494,0.009545430541038513,-0.014718069694936275,-0.09084340184926987,0.013411877676844597,-0.01395381335169077,0.07219502329826355,0.016062762588262558,-0.01360391266644001,0.01255093514919281,-0.018853450194001198,0.037266019731760025,-0.02943013422191143,0.06718787550926208,0.005570754408836365,-0.02431829459965229,-0.003223695559427142,0.01223364844918251,-0.002100202953442931,-0.0847259908914566,-0.0680079460144043,0.04175824671983719,0.017501095309853554,0.09589718282222748,0.09697552770376205,0.08490857481956482,-0.04329872503876686,-0.04883918538689613,0.12217960506677628,0.049116067588329315,-0.03109014220535755,-0.06914772093296051,0.04968344047665596,0.09025504440069199,0.036379456520080566,-0.03418289124965668,-0.0035836922470480204,0.06885482370853424,-0.06630587577819824,-0.0638759508728981,0.06860551983118057,-0.018225517123937607,-0.019201131537556648,0.049115244299173355,-0.005442955531179905,-0.06153940409421921,-0.02228527143597603,-0.09249286353588104,-0.0020812544971704483,0.07236072421073914,-0.03979630023241043,-0.05630198121070862,0.04646776244044304,0.06987015157938004,-0.04725667089223862,-0.06403284519910812,-0.06269372254610062,-0.054552264511585236,-0.03828490152955055,-0.024223269894719124,0.020087290555238724,-0.015418212860822678,-0.09642954915761948,0.006700280588120222,0.06261667609214783,-0.0197809599339962,-0.02720591425895691,0.09468057751655579,-0.006995605304837227,0.03253284469246864,-0.055928319692611694,-0.04944676533341408,-0.11296150088310242,0.11004900932312012,0.027497509494423866,0.05880018696188927,0.028055457398295403,0.06727010011672974,-0.035445574671030045,0.038539450615644455,0.014985409565269947,-0.055086392909288406,-0.06305219978094101,0.03351595625281334,-0.03717058524489403,-0.04334899038076401,-0.07040469348430634,0.049481723457574844,-0.020422525703907013,0.03626202046871185,-0.07479584962129593,-0.12742888927459717,-0.07150772958993912,0.015180516988039017,0.07009358704090118,0.04415709525346756,-0.015831558033823967,-0.017030509188771248,-0.045702531933784485,-0.011273318901658058,-0.0945773720741272,0.0017894922057166696,-0.06179439648985863,-0.02227693982422352,0.006058226339519024,-0.07564230263233185,-0.046491894870996475,-0.014018574729561806,0.02237623557448387,-0.09805644303560257,-0.05239851772785187,-0.012749122455716133,-0.04524650797247887,-0.06825991719961166,-0.010051367804408073,-0.0585557222366333,-0.03734683617949486,-0.08400936424732208,-0.03863685205578804,0.0890054777264595,0.06059280410408974,-0.04321499168872833,0.07903704792261124,0.11093679070472717,-0.003063310869038105,0.047482557594776154,-0.057666078209877014,0.0023167566396296024,-0.0642494261264801,-0.060057133436203,0.03843670338392258,0.0446755588054657,-0.005080020520836115,-0.07861796021461487,-0.011861961334943771,0.0167402196675539,-0.08281467109918594,-0.002596818143501878,-0.024329110980033875,0.014279183000326157,-0.06584300845861435,0.01313371118158102,0.002579140942543745,0.0821385383605957,-0.014721428044140339,-0.0378476046025753,-0.010293145664036274,0.06114383414387703,0.09683527797460556,-0.03102494217455387,-0.010670258663594723,0.05563051626086235,-0.012325779534876347,-0.0059646181762218475,-0.02995309606194496,0.03414391726255417,0.00847645103931427,0.03409191593527794,-0.11573805660009384,-0.05993107706308365,-0.12446422129869461,0.03419120982289314,-0.0484369657933712,0.015842098742723465,0.0802142545580864,0.04381656274199486,0.04390797019004822,0.045679185539484024,-0.00760294683277607,-0.03414740040898323,0.056168876588344574,-0.022271396592259407,0.07409955561161041,0.07237709313631058,0.051184847950935364,-0.06172977760434151,0.0427662655711174,-0.05125247687101364,-0.003247006330639124,0.056062813848257065,-0.06313009560108185,-0.024525469169020653,-0.03806474432349205,-0.06739436835050583,0.03103688545525074,-0.041385017335414886,0.01229036320000887,0.023267239332199097,-0.0031820579897612333,0.03480641543865204,0.055785614997148514,0.05858979746699333,-0.05650990828871727,0.029845640063285828,0.05098675191402435,0.028198298066854477,-0.0662502571940422,-0.0035650059580802917,0.07344207912683487,-0.08589731901884079,0.0131536228582263,-0.007198290433734655,-0.10088103264570236,0.00365910935215652,-0.007048949599266052,0.025296121835708618,0.04076478257775307,0.05402137711644173,-0.021397752687335014,-0.036645229905843735,-0.052688200026750565,-0.05860256403684616,-0.0018999619642272592,0.05802653357386589,-0.015542830340564251,0.031613126397132874,0.07751200348138809,0.09203609079122543,-0.035092320293188095,0.021515022963285446,0.027257833629846573,0.058339957147836685,0.03443704545497894,0.09619886428117752,0.005683984141796827,-0.0863717794418335,0.011875511147081852,-0.10351673513650894,0.10240787267684937,-0.02941325679421425,0.008631989359855652,0.019580556079745293,-0.025980668142437935,-0.018706759437918663,0.05644850432872772,0.031212247908115387,-0.07456997036933899,0.033269234001636505,-0.05539075657725334,0.0030675013549625874,-0.06741759181022644,-0.027536744251847267,0.1362781673669815,0.018333282321691513,-0.0042403507977724075,-0.017023220658302307,-0.004092230927199125,-0.0010035913437604904,0.016527479514479637,-0.022210221737623215,-0.029308157041668892,0.1428603231906891,0.12803679704666138,-0.12465047091245651,0.017643747851252556,0.051917895674705505,-0.06534650176763535,0.023987388238310814,-0.08201402425765991,-0.07832002639770508,-0.03585461527109146,0.04645081236958504,-0.02483927272260189,-0.04708925634622574,0.042464934289455414,0.036270055919885635,-0.021537067368626595,-0.0012124825734645128,-0.08565729111433029,-0.08934491127729416,0.03806084021925926,0.021319346502423286,0.030147522687911987,-0.06259331852197647,0.052903782576322556,-0.03007243573665619,-0.006213020533323288,-0.053133901208639145,0.049624718725681305,-0.07746939361095428,0.04092133045196533,0.008443592116236687,-0.007010312285274267,-0.06556958705186844,0.10565300285816193,-0.01023470051586628,0.09379754960536957,-0.029676903039216995,-0.039461273699998856,0.012382620014250278,-0.003640791866928339,0.11863850057125092,0.13271081447601318,-0.1622505784034729,0.08584418147802353,0.03744950518012047,-0.042310427874326706,-0.05163599178195,0.08644349128007889,0.03604920953512192,0.08841326087713242,0.0933571308851242,-0.061146970838308334,-0.015531671233475208,0.027705475687980652,0.04395817965269089,0.005301739554852247,-0.03567495569586754,-0.0384480282664299,-0.04401685297489166,-0.0016713538207113743,0.004806774668395519,0.10097778588533401,-0.028562763705849648,0.053920306265354156,0.09408369660377502,-0.058031607419252396,-0.03878903388977051,0.05426837503910065,-0.028380224481225014,-0.07661160826683044,-0.04322899132966995,-0.0855557769536972,-0.027937868610024452,-0.03660578653216362,0.06239641085267067,0.07020415365695953,-0.03250761702656746,-0.09572822600603104,0.04573990777134895,0.053443845361471176,-0.0357799232006073,0.04586830735206604,-0.07802791893482208,-0.0898764431476593,-0.03753548860549927,0.07929195463657379,0.09255294501781464,0.05791683867573738,0.03408351168036461,0.020754264667630196,-0.052830297499895096,-0.10819335281848907,-0.0588664747774601,-0.07586691528558731,-0.026494458317756653,0.045032232999801636,0.026830215007066727,-0.007182938512414694,0.08352304995059967,-0.04146420583128929,-0.0214700885117054,-0.05254895240068436,-0.028595881536602974,0.03622332960367203,0.051742758601903915,0.024803651496767998,-0.03667052090167999,-0.060971491038799286,0.007319597527384758,-0.01024466659873724,-0.018964169546961784,0.005370670929551125,-0.08506009727716446,-0.0005999987479299307,0.025354215875267982,0.05512719973921776,-0.05071166157722473,-0.016260197386145592,0.02964116632938385,-0.04848013445734978,0.027476860210299492,-0.04180830344557762,-0.0356571339070797,0.03479624167084694,-0.05299171060323715,-0.025771863758563995,0.027134638279676437,0.03214047849178314,-0.007087765261530876,-0.037414245307445526,-0.022615713998675346,0.0569949746131897,0.051280029118061066,0.025803133845329285,-0.008929834701120853,-0.048387784510850906,0.06565398722887039,-0.008979584090411663,-0.03227246180176735,-0.07379931211471558,-0.045900315046310425,-0.012164362706243992,0.060827888548374176,0.04482405260205269,-0.06987982988357544,-0.04938138648867607,0.08314938843250275,0.040609005838632584,-0.059796594083309174,-0.08998528867959976,-0.026220325380563736,0.019757326692342758,0.0899929478764534,-0.0642567053437233,-0.026887498795986176,-0.06435048580169678,-0.06421003490686417,-0.13537971675395966,-0.04903523623943329,-0.09472411125898361,-0.060312144458293915,-0.12232337146997452,-0.0002237678418168798,-0.01906484365463257,-0.014142841100692749,0.050194818526506424,0.037695858627557755,-0.08459603041410446,0.05251743644475937,-0.06326525658369064,-0.01305210217833519,-0.015571649186313152,0.011248710565268993,-0.028086435049772263,0.04168503358960152,-0.01854085735976696,0.002831369638442993,-0.013927388936281204,0.056920018047094345,-0.05150645226240158,-0.03692419081926346,-0.02827676385641098,-0.09630487114191055,-0.02032850682735443,-0.01594524271786213,-0.026538588106632233,-0.05224721506237984,0.029165709391236305,-0.02037038281559944,-0.041811101138591766,-0.002654113806784153,0.05622933432459831,-0.11184023320674896,-0.12041353434324265,-0.09353069216012955,-0.005858744960278273,0.018387632444500923,-0.04992589354515076,0.0004490792634896934,0.059290237724781036,0.024205343797802925,0.04072437435388565,-0.07631044834852219,0.019039185717701912,0.047838546335697174,-0.029225237667560577,0.02746194787323475,0.0057020350359380245,-0.06104210764169693,-0.044934291392564774,0.04528994485735893,-0.06452374160289764,-0.04406047239899635,-0.12992431223392487,-0.059763986617326736,0.014958206564188004,-0.0775376558303833,-0.07414845377206802,-0.04024488851428032,0.0486481599509716,0.01740274950861931,-0.009903599508106709,0.028707919642329216,-0.004993660841137171,-0.10772957652807236,-0.10488145798444748,0.0469016395509243,-0.02982563152909279,0.05562972277402878,-0.059927862137556076,0.04386414214968681,0.033282067626714706,0.01219705119729042,-0.050232354551553726,0.09745222330093384,0.0638854056596756,-0.01529286801815033,-0.02444283477962017,-0.04113508760929108,-0.05291621759533882,0.08885898441076279,0.028245162218809128,-0.008835877291858196,-0.08182317018508911,0.0009928217623382807,-0.052830860018730164,-0.030065452679991722,-0.025666195899248123,0.06397712230682373,0.07441491633653641,0.06568457931280136,0.05407913774251938,-0.04853789508342743,0.051829587668180466,-0.039298899471759796,0.0032036947086453438,0.03351513668894768,-0.08213601261377335,0.04235680028796196,0.05519546568393707,-0.017882997170090675,-0.0022546991240233183,-0.0729227215051651,0.041635967791080475,-0.029611079022288322,-0.05074230208992958,0.03808477893471718,0.032876960933208466,0.04965595155954361,0.039204712957143784,-0.09196729212999344,0.03992174193263054,-0.027905022725462914,-0.0678902417421341,-0.009667295031249523,-0.06925886124372482,0.029917724430561066,-0.08743839710950851,-0.08835507184267044,0.026705903932452202,0.01776880770921707,-0.0440061092376709,-0.055501073598861694,-0.07266867905855179,0.005631244275718927,-0.05734890326857567,-0.01429782621562481,0.008683950640261173,0.0023606468457728624,-0.05008944123983383,-0.06830783188343048,-0.09795613586902618,0.015132210217416286,-0.014806621707975864,-0.09269772469997406,-0.023608554154634476,-0.10469091683626175,-0.08248506486415863,-0.0800759494304657,-0.07106595486402512,-0.0672311782836914,-0.11327484995126724,0.03643530607223511,0.017791487276554108,0.03343060612678528,0.06297324597835541,0.02642703242599964,-0.09308665990829468,0.0022312640212476254,0.006810835096985102,-0.11799809336662292,-0.109048992395401,-0.005354367662221193,-0.04144782945513725,0.08117469400167465,0.08091846853494644,-0.018404709175229073,-0.1460867077112198,-0.13788215816020966,-0.08298651874065399,-0.006826341617852449,-0.024135297164320946,0.026639658957719803,0.06989434361457825,-0.012584888376295567,0.05616845563054085,-0.07458046078681946,0.0146838603541255,-0.018890606239438057,0.027806878089904785,-0.028054751455783844,-0.001953225350007415,-0.09220562130212784,0.04590237885713577,-0.002960063284263015,-0.08574353158473969,0.05657561495900154,-0.03675632178783417,-0.044914908707141876,0.0168366227298975,0.05869568511843681,0.08444664627313614,-0.095768503844738,-0.002719916170462966,0.006837544962763786,-0.12541848421096802,-0.06754136085510254,0.08199211210012436,0.07622075080871582,0.08108918368816376,-0.05687124654650688,0.07191680371761322,-0.06948096305131912,0.0175157580524683,0.002268825424835086,-0.03537638485431671,0.01718015782535076,-0.005780144594609737,-0.09299476444721222,0.06549546867609024,0.07056032866239548,-0.02922157011926174,-0.050157833844423294,-0.07073327898979187,-0.052561789751052856,-0.10013919323682785,-0.05934537574648857,0.022337356582283974,-0.04401170462369919,-0.09985069185495377,-0.16821114718914032,-0.14721502363681793,-0.01040898822247982,-0.05471305921673775,0.06227916106581688,0.016588110476732254,-0.05523725226521492,-0.03942282125353813,-0.019689297303557396,0.05295094847679138,0.010758447460830212,0.01033764611929655,-0.04812395200133324,0.05984318256378174,-0.10926647484302521,0.015466880984604359,-0.06928561627864838,-0.00999486818909645,-0.03395339101552963,-0.041900884360075,-0.0032681236043572426,-0.09412005543708801,-0.05071311444044113,0.010653724893927574,-0.058015741407871246,-0.0580802820622921,0.00947850663214922,0.04242418333888054,0.002912765135988593,0.014927000738680363,-0.0044853417202830315,-0.04569355770945549,-0.07563231885433197,-0.06964991986751556,-0.020080046728253365,-0.011550413444638252,-0.014203481376171112,-0.05151984840631485,0.018361954018473625,-0.11481540650129318,-0.07089131325483322,-0.13103361427783966,0.010519597679376602,-0.06526612490415573,-0.014073547907173634,9.072324610315263e-05,0.07967697829008102,0.03208370506763458,0.02945476584136486,0.05246642231941223,0.01247628964483738,-0.05780097842216492,0.05773018300533295,-0.029181981459259987,-0.05076489597558975,-0.05771651864051819,-0.06939815729856491,-0.0627501904964447,-0.08278442919254303,0.010419245809316635,-0.013922303915023804,-0.06016821041703224,-0.02072308212518692,-0.06948097050189972,-0.05145198851823807,-0.02245154418051243,0.005578288342803717,-0.06979372352361679,-0.07521653175354004,0.05829453840851784,-0.016550593078136444,-0.027804672718048096,-0.05911784619092941,0.07435815036296844,0.09506867825984955,0.01691613532602787,0.001713643316179514,-0.0291853379458189,0.08106936514377594,-0.055833734571933746,-0.014839952811598778,0.027042152360081673,0.006215675733983517,-0.07782784104347229,0.021395865827798843,-0.037278544157743454,-0.07379039376974106,-0.024320047348737717,-0.09302040934562683,-0.05147238075733185,0.016093306243419647,0.02138247899711132,-0.08926858752965927,-0.03998894244432449,0.034947678446769714,-0.028900304809212685,-0.014187753200531006,0.008006835356354713,-0.020593397319316864,0.02195066027343273,-0.10289566218852997,0.0400901660323143,0.009610414505004883,-0.01839100383222103,0.02826630137860775,-0.017970513552427292,-0.0017156524118036032,-0.04489002749323845,-0.0008256295113824308,-0.08285646140575409,-0.023317042738199234,0.005899521056562662,-0.06033039465546608,-0.0008478940580971539,-0.07715010643005371,0.034689318388700485,0.04137060418725014,-0.12843763828277588,-0.10175690054893494,0.0406048409640789,-0.04234112799167633,0.004712794441729784,0.054078180342912674,-0.03100501373410225,-0.03990544006228447,0.03925379365682602,-0.03009566105902195,-0.08791409432888031,-0.00773999560624361,-0.04844862222671509,-0.10993123054504395,0.010156688280403614,0.008268151432275772,-0.002846190007403493,-0.014814944006502628,-0.037923164665699005,-0.0907166376709938,-0.051892198622226715,0.07748544216156006,-0.04494359344244003,-0.054715853184461594,-0.041576698422431946,0.08485163748264313,0.07601387053728104,0.01732712611556053,-0.047330036759376526,-0.09786875545978546,-0.1366402804851532,0.002131896559149027,-0.06354271620512009,-0.025724539533257484,-0.0817277804017067,-0.007031991612166166,-0.05944254249334335,0.07716101408004761,-0.04003439098596573,0.024704961106181145,0.07913129776716232,0.07308866083621979,-0.029967190697789192,0.00019374510156922042,-0.03322165086865425,0.12080875039100647,0.037755511701107025,-0.030805306509137154,0.0023851024452596903,0.02120225876569748,0.08308203518390656,-0.0018788097659125924,0.06297296285629272,0.012322754599153996,-0.04584270715713501,0.07695847749710083,-0.008799117989838123,-0.022905739024281502,-0.09114350378513336,0.05553009733557701,-0.06330884248018265,-0.14023779332637787,0.054513055831193924,-0.05162181705236435,-0.047326698899269104,0.03618302941322327,0.04416535794734955,0.049883272498846054,0.06392563134431839,-0.021830134093761444,-0.023611299693584442,0.06796100735664368,0.018769484013319016,-0.053814422339200974,0.06703785061836243,0.062285151332616806,0.048016298562288284,-0.02805590070784092,0.01057161670178175,-0.09687105566263199,-0.04811647906899452,0.09308017045259476,-0.029980143532156944,0.0630815252661705,-0.003872266737744212,0.08192281424999237,-0.0005831944290548563,-0.002909682458266616,0.07869318127632141,-0.011312569491565228,-0.009331689216196537,0.07737823575735092,0.017756616696715355,-0.019834784790873528,-0.001221367041580379,-0.08226712793111801,-0.08037380129098892,-0.008791000582277775,-0.12139725685119629,-0.04252784326672554,0.016720743849873543,0.025812428444623947,-0.10193615406751633,-0.07645148783922195,-0.11297710239887238,-0.03286086767911911,0.059908270835876465,-0.05107741057872772,0.0035056988708674908,-0.09685748815536499,-0.0787351056933403,-0.05191279947757721,-0.038939468562603,0.04998847842216492,-0.046910129487514496,-0.06988152116537094,-0.039459750056266785,0.05343855544924736,-0.032517220824956894,-0.022762170061469078,0.028347669169306755,0.017736081033945084,0.04820086807012558,0.07980002462863922,0.050503335893154144,0.0071947770193219185,0.05084393173456192,0.035986319184303284,-0.038177791982889175,0.011973678134381771,-0.03054136224091053,0.07410954684019089,0.00012693334429059178,0.032838910818099976,-0.02091852016746998,-0.03066602721810341,-0.0588214136660099,-0.018292315304279327,-0.0010516364127397537,0.04734787717461586,-0.04447690397500992,-0.07131721079349518,-0.054723337292671204,0.08155025541782379,0.11783549934625626,-0.005076294299215078,-0.03984380513429642,-0.05392597243189812,0.032984521239995956,-0.0381334125995636,0.09501499682664871,0.029421750456094742,-0.00625415425747633,0.06223710998892784,0.09408771246671677,-0.01797749660909176,0.01498995628207922,0.01333805825561285,-0.010610188357532024,-0.05558338761329651,-0.08768695592880249,-0.04392952099442482,0.04430879279971123,-0.013307874090969563,-0.07572673261165619,-0.0033897417597472668,0.0702953040599823,0.05451828986406326,-0.07158507406711578,-0.03250043839216232,-0.11121168732643127,0.004099621903151274,0.001681268448010087,0.023667115718126297,-0.03362711891531944,-0.016586391255259514,0.07281854748725891,-0.022695867344737053,-1.6031990526244044e-05,-0.026817964389920235,-0.03968944400548935,-0.0549422949552536,-0.0710466131567955,0.018642786890268326,0.009252692572772503,-0.04643481224775314,0.025608906522393227,0.014970052987337112,0.053694888949394226,0.08400862663984299,0.10456366091966629,0.016240471974015236,-0.017852071672677994,0.020068833604454994,0.06755053251981735,0.013323490507900715,-0.05459415912628174,-0.05893167480826378,-0.019405081868171692,0.00022777919366490096,-0.013323280960321426,-0.0071769277565181255,-0.06647523492574692,0.07714720815420151,0.08229967951774597,0.05489489808678627,-0.05600281432271004,0.09408698976039886,0.0775492861866951,-0.027488011866807938,0.03358623385429382,-0.04452096298336983,-0.0847051590681076,-0.047529906034469604,0.03259949013590813,0.037543557584285736,-0.031997837126255035,-0.07336883991956711,-0.06013426557183266,0.0618974007666111,0.01485496573150158,-0.018563032150268555,0.043589647859334946,0.018353765830397606,-0.08336909860372543,-0.0973556637763977,-0.08827342092990875,-0.05281798169016838,0.07623236626386642,-0.003944056574255228,-0.06895430386066437,-0.0806589126586914,-0.06908082216978073,0.04785247519612312,-0.0024982672184705734,-0.06881517916917801,-0.020887332037091255,-0.0820351094007492,-0.05858108401298523,0.05698588490486145,0.05249958112835884,0.043688446283340454,-0.0204976424574852,0.05555461347103119,0.07147318124771118,0.04670381546020508,-0.07772570848464966,0.021787559613585472,0.029040802270174026,-0.026389921084046364,-0.11137143522500992,-0.004908875096589327,0.0780630111694336,-0.04148128256201744,0.026217075064778328,0.018480708822607994,-0.08082272112369537,-0.06184403598308563,-0.024534553289413452,-0.048968423157930374,0.08828616887331009,-0.03822014853358269,0.008103392086923122,-0.04746893420815468,-0.028258822858333588,-0.03797508403658867,-0.10032254457473755,-0.01966584101319313,-0.07306795567274094,-0.02561636082828045,-0.0026480653323233128,0.039665669202804565,0.05090800300240517,0.02917911484837532,0.059577975422143936,-0.06306734681129456,0.01030715648084879,-0.03490530699491501,0.026285698637366295,-0.07408878207206726,0.09373850375413895,-0.02280244417488575,0.0489656887948513,-0.003473577555269003,0.07775238156318665,-0.012381731532514095,0.01237468607723713,-0.065584696829319,-0.01749994419515133,0.04192778468132019,0.00122743914835155,0.020862428471446037,-0.009131734259426594,-0.03640295937657356,-0.010628465563058853,0.06655029207468033,0.030776314437389374,0.09647046774625778,0.05800246074795723,-0.015486898832023144,0.0703587457537651,0.043952420353889465,-0.008315364830195904,-0.025468170642852783,-0.07387860119342804,0.016321416944265366,0.07400141656398773,0.02135045826435089,-0.012493186630308628,0.007526184897869825,0.010593662969768047,-0.014999760314822197,-0.11241624504327774,0.03521494194865227,-0.04027432203292847,0.10137796401977539,0.08722882717847824,0.0868048146367073,-0.008401365019381046,0.06369955092668533,-0.04102668911218643,0.014949862845242023,-0.060214679688215256,-0.08335167914628983,-0.035074640065431595,-0.06669379025697708,-0.01288177352398634,-0.08638527989387512,-0.0947994738817215,0.03550321236252785,-0.10196025669574738,-0.01975097879767418,0.03742384910583496,0.022777769714593887,0.031402867287397385,-0.027459176257252693,-0.04066966101527214,-0.03878096863627434,-0.0011676480062305927,0.005332875065505505,0.13465453684329987,0.046428434550762177,0.06736064702272415,-0.011839581653475761,0.004214814864099026,0.040936268866062164,-0.022974800318479538,-0.0430038757622242,0.06929951161146164,0.06447824090719223,0.0113125741481781,-0.007841923274099827,0.07737429440021515,-0.02512599341571331,-0.012928875163197517,-0.0945897251367569,-0.029022803530097008,-0.0865456834435463,0.004216584376990795,0.057063981890678406,-0.06632083654403687,-0.0097779780626297,0.06499264389276505,0.04170861467719078,-0.026816068217158318,0.03695721924304962,-0.026127895340323448,-0.07995767891407013,-0.08279431611299515,-0.011350011453032494,0.09226831793785095,-0.009042028337717056,-0.08046909421682358,0.032498057931661606,0.008060647174715996,0.0425650030374527,-0.07627871632575989,-0.024957850575447083,-0.0339290127158165,-0.029186874628067017,0.0007718965644016862,-0.06313834339380264,0.0340176559984684,0.007774554193019867,0.1491890847682953,0.04884421080350876,0.023820722475647926,0.0360778383910656,0.023105647414922714,0.06541609764099121,0.08021890372037888,-0.04130161553621292,-0.040367115288972855,-0.060681454837322235,0.019300099462270737,0.09245184808969498,0.04548310115933418,0.08092159777879715,0.05840734392404556,-0.03399993106722832,-0.03739631921052933,-0.06879036873579025,-0.032336656004190445,0.016595670953392982,0.013354618102312088,-0.007871662266552448,-0.016737760975956917,-0.07636982947587967,0.028711562976241112,-0.059632398188114166,0.0471656434237957,0.04350055754184723,-0.09556753188371658,0.05405321344733238,-0.01404234766960144,-0.020654937252402306,0.02404307760298252,0.02663004957139492,0.0024841297417879105,-0.08865521848201752,-0.030716560781002045,0.0008252322440966964,0.002901714527979493,0.06475285440683365,0.04457990452647209,0.07103899121284485,0.030407091602683067,0.04321836307644844,-0.04735339432954788,-0.061837319284677505,-0.012444650754332542,0.10820236057043076,0.06806552410125732,-0.009221740067005157,0.04103350266814232,-0.034223154187202454,0.08062667399644852,0.03451142832636833,0.0903773233294487,0.08162304759025574,-0.04022742807865143,0.017275942489504814,-0.03408634662628174,0.06318550556898117,-0.053036171942949295,-0.05936069041490555,0.024084117263555527,0.030736016109585762,0.029743649065494537,-0.024468617513775826,0.0071962978690862656,-0.07431291043758392,-0.043949976563453674,0.0036444643046706915,-0.0038311041425913572,-0.02059084363281727,-0.08473826944828033,-0.05157981067895889,0.06173935532569885,0.059431422501802444,0.013789311051368713,-0.031868092715740204,-0.03460531309247017,0.0790613442659378,-0.03303660452365875,-0.01636737398803234,0.13900208473205566,0.13633441925048828,0.09640935808420181,0.12599730491638184,0.0006456150440499187,0.05500192567706108,-0.02287585474550724,0.0710672065615654,0.06927485018968582,-0.05653451755642891,0.06823821365833282,-0.07276017218828201,-0.05797937884926796,-0.0811251848936081,0.02116243727505207,0.09120334684848785,0.0055825840681791306,0.1061410903930664,-0.040394026786088943,-0.005843247286975384,0.04797358438372612,-0.04127447307109833,0.031217103824019432,-0.10630179196596146,0.06804995983839035,0.07080544531345367,0.011819480918347836,0.0236339308321476,0.08498754352331161,-0.009116844274103642,-0.0793241634964943,-0.06200481951236725,-0.02707577683031559,0.04509206861257553,-0.03605426847934723,-0.07636431604623795,0.06721920520067215,-0.094044990837574,-0.014553971588611603,0.03511285036802292,-0.05227700620889664,-0.046806324273347855,-0.015389878302812576,-0.10036739706993103,-0.026869233697652817,0.04731424152851105,-0.02408021315932274,0.02242123894393444,-0.03189282864332199,-0.056489020586013794,-0.05235755071043968,0.00311496714130044,0.05735006555914879,0.028766289353370667,0.027728985995054245,0.05160871148109436,-0.06332559883594513,0.019356178119778633,-0.10272817313671112,-0.09050693362951279,0.009017763659358025,-0.021436380222439766,-0.06276875734329224,0.009789152070879936,-0.09452912211418152,-0.01619270071387291,-0.05096856877207756,-0.03723206743597984,0.014480307698249817,0.031568702310323715,0.01382263470441103,0.008064947091042995,-0.02154446579515934,-0.016587376594543457,0.03817875683307648,0.03537363559007645,-0.06721697747707367,0.03398793190717697,-0.08538782596588135,-0.0011696652509272099,0.01446459535509348,-0.02512178383767605,0.024856360629200935,0.013820599764585495,-0.04733717441558838,-0.09914783388376236,-0.061360184103250504,0.007025066297501326,-0.019200259819626808,0.020896175876259804,0.04795448109507561,0.0006079840823076665,-0.05965942144393921,0.08219722658395767,0.029589693993330002,-0.0011380340438336134,-0.11982782930135727,-0.05185576528310776,-0.08471966534852982,0.005997922737151384,0.050993140786886215,-0.027835816144943237,0.034651387482881546,-0.1008942574262619,-0.008425038307905197,-0.009794262237846851,0.03162427991628647,-0.00743831554427743,